{"learner":{"attributes":{"scikit_learn":"{\"_estimator_type\": \"regressor\"}"},"feature_names":["runtime","budget","release_month","director_hist_rev","actor_hist_rev","is_debut_director","is_debut_actor","genre_Drama","genre_Comedy","genre_Action","genre_Thriller","genre_Romance","genre_Adventure","genre_Crime","genre_Horror","genre_Family","genre_Science Fiction","genre_Fantasy","genre_Mystery"],"feature_types":["int","int","int","float","float","int","int","int","int","int","int","int","int","int","int","int","int","int","int"],"gradient_booster":{"model":{"cats":{"enc":[],"feature_segments":[],"sorted_idx":[]},"gbtree_model_param":{"num_parallel_tree":"1","num_trees":"100"},"iteration_indptr":[0,1,2,3,4,5,6,7,8,9,10,11,12,13,14,15,16,17,18,19,20,21,22,23,24,25,26,27,28,29,30,31,32,33,34,35,36,37,38,39,40,41,42,43,44,45,46,47,48,49,50,51,52,53,54,55,56,57,58,59,60,61,62,63,64,65,66,67,68,69,70,71,72,73,74,75,76,77,78,79,80,81,82,83,84,85,86,87,88,89,90,91,92,93,94,95,96,97,98,99,100],"tree_info":[0,0,0,0,0,0,0,0,0,0,0,0,0,0,0,0,0,0,0,0,0,0,0,0,0,0,0,0,0,0,0,0,0,0,0,0,0,0,0,0,0,0,0,0,0,0,0,0,0,0,0,0,0,0,0,0,0,0,0,0,0,0,0,0,0,0,0,0,0,0,0,0,0,0,0,0,0,0,0,0,0,0,0,0,0,0,0,0,0,0,0,0,0,0,0,0,0,0,0,0],"trees":[{"base_weights":[-2.0585591E-7,-1.2964991E0,1.3579556E0,-2.5518553E0,-7.629805E-1,7.2681135E-1,2.3836088E0,-2.0608354E-1,-1.1033582E-1,-4.5358237E-2,3.7552614E-3,1.7180972E-2,5.1204752E-2,1.0144746E-1,1.6788885E-1],"categories":[],"categories_nodes":[],"categories_segments":[],"categories_sizes":[],"default_left":[0,0,0,0,0,0,0,0,0,0,0,0,0,0,0],"id":0,"left_children":[1,3,5,7,9,11,13,-1,-1,-1,-1,-1,-1,-1,-1],"loss_changes":[1.3459697E4,2.6174683E3,2.415417E3,6.226489E2,3.3189136E2,2.6313745E2,4.8448486E2,0E0,0E0,0E0,0E0,0E0,0E0,0E0,0E0],"parents":[2147483647,0,0,1,1,2,2,3,3,4,4,5,5,6,6],"right_children":[2,4,6,8,10,12,14,-1,-1,-1,-1,-1,-1,-1,-1],"split_conditions":[1.09E7,1.091E6,3.7E7,7.9E4,1.6704697E7,1.9E7,9E7,-2.0608354E-1,-1.1033582E-1,-4.5358237E-2,3.7552614E-3,1.7180972E-2,5.1204752E-2,1.0144746E-1,1.6788885E-1],"split_indices":[1,1,1,1,3,1,1,0,0,0,0,0,0,0,0],"split_type":[0,0,0,0,0,0,0,0,0,0,0,0,0,0,0],"sum_hessian":[7.643E3,3.91E3,3.733E3,1.165E3,2.745E3,2.312E3,1.421E3,2.08E2,9.57E2,2.342E3,4.03E2,1.011E3,1.301E3,1.044E3,3.77E2],"tree_param":{"num_deleted":"0","num_feature":"19","num_nodes":"15","size_leaf_vector":"1"}},{"base_weights":[-2.7991414E-6,-1.2317654E0,1.290148E0,-2.4245336E0,-7.248463E-1,6.905002E-1,2.2646174E0,-1.9582866E-1,-1.0482476E-1,-6.894715E-2,-2.7221793E-2,1.2487973E-2,4.6302956E-2,9.637992E-2,1.5951662E-1],"categories":[],"categories_nodes":[],"categories_segments":[],"categories_sizes":[],"default_left":[0,0,0,0,0,0,0,0,0,0,0,0,0,0,0],"id":1,"left_children":[1,3,5,7,9,11,13,-1,-1,-1,-1,-1,-1,-1,-1],"loss_changes":[1.2149124E4,2.3629775E3,2.1803564E3,5.624834E2,3.2329346E2,2.3990515E2,4.374917E2,0E0,0E0,0E0,0E0,0E0,0E0,0E0,0E0],"parents":[2147483647,0,0,1,1,2,2,3,3,4,4,5,5,6,6],"right_children":[2,4,6,8,10,12,14,-1,-1,-1,-1,-1,-1,-1,-1],"split_conditions":[1.09E7,1.091E6,3.7E7,7.9E4,2.2E6,1.64E7,9E7,-1.9582866E-1,-1.0482476E-1,-6.894715E-2,-2.7221793E-2,1.2487973E-2,4.6302956E-2,9.637992E-2,1.5951662E-1],"split_indices":[1,1,1,1,1,1,1,0,0,0,0,0,0,0,0],"split_type":[0,0,0,0,0,0,0,0,0,0,0,0,0,0,0],"sum_hessian":[7.643E3,3.91E3,3.733E3,1.165E3,2.745E3,2.312E3,1.421E3,2.08E2,9.57E2,5.92E2,2.153E3,8.06E2,1.506E3,1.044E3,3.77E2],"tree_param":{"num_deleted":"0","num_feature":"19","num_nodes":"15","size_leaf_vector":"1"}},{"base_weights":[-1.3419435E-5,-1.1702785E0,1.2257249E0,-2.4059937E0,-7.2649115E-1,6.560009E-1,2.151566E0,-1.8608409E-1,-1.034885E-1,-6.731828E-2,-2.5861342E-2,1.911585E-2,5.0097656E-2,9.156551E-2,1.5156186E-1],"categories":[],"categories_nodes":[],"categories_segments":[],"categories_sizes":[],"default_left":[0,0,0,0,0,0,0,0,0,0,0,0,0,0,0],"id":2,"left_children":[1,3,5,7,9,11,13,-1,-1,-1,-1,-1,-1,-1,-1],"loss_changes":[1.0966285E4,2.1430244E3,1.9681768E3,4.4926123E2,3.7276074E2,2.1861536E2,3.950537E2,0E0,0E0,0E0,0E0,0E0,0E0,0E0,0E0],"parents":[2147483647,0,0,1,1,2,2,3,3,4,4,5,5,6,6],"right_children":[2,4,6,8,10,12,14,-1,-1,-1,-1,-1,-1,-1,-1],"split_conditions":[1.09E7,1E6,3.7E7,7.9E4,2.2E6,2.1E7,9E7,-1.8608409E-1,-1.034885E-1,-6.731828E-2,-2.5861342E-2,1.911585E-2,5.0097656E-2,9.156551E-2,1.5156186E-1],"split_indices":[1,1,1,1,1,1,1,0,0,0,0,0,0,0,0],"split_type":[0,0,0,0,0,0,0,0,0,0,0,0,0,0,0],"sum_hessian":[7.643E3,3.91E3,3.733E3,1.032E3,2.878E3,2.312E3,1.421E3,2.08E2,8.24E2,7.25E2,2.153E3,1.292E3,1.02E3,1.044E3,3.77E2],"tree_param":{"num_deleted":"0","num_feature":"19","num_nodes":"15","size_leaf_vector":"1"}},{"base_weights":[-2.1944365E-5,-1.1118623E0,1.1645222E0,-2.285974E0,-6.901987E-1,6.2323064E-1,2.0441585E0,-1.7682444E-1,-9.832031E-2,-5.877174E-2,-2.2265993E-2,1.0909787E-2,4.1985687E-2,8.575409E-2,1.4112605E-1],"categories":[],"categories_nodes":[],"categories_segments":[],"categories_sizes":[],"default_left":[0,0,0,0,0,0,0,0,0,0,0,0,0,0,0],"id":3,"left_children":[1,3,5,7,9,11,13,-1,-1,-1,-1,-1,-1,-1,-1],"loss_changes":[9.898648E3,1.9346802E3,1.7766313E3,4.0585742E2,3.4157104E2,2.0262799E2,3.593911E2,0E0,0E0,0E0,0E0,0E0,0E0,0E0,0E0],"parents":[2147483647,0,0,1,1,2,2,3,3,4,4,5,5,6,6],"right_children":[2,4,6,8,10,12,14,-1,-1,-1,-1,-1,-1,-1,-1],"split_conditions":[1.09E7,1E6,3.7E7,7.9E4,3E6,1.64E7,8.4E7,-1.7682444E-1,-9.832031E-2,-5.877174E-2,-2.2265993E-2,1.0909787E-2,4.1985687E-2,8.575409E-2,1.4112605E-1],"split_indices":[1,1,1,1,1,1,1,0,0,0,0,0,0,0,0],"split_type":[0,0,0,0,0,0,0,0,0,0,0,0,0,0,0],"sum_hessian":[7.643E3,3.91E3,3.733E3,1.032E3,2.878E3,2.312E3,1.421E3,2.08E2,8.24E2,9.64E2,1.914E3,8.06E2,1.506E3,1.001E3,4.2E2],"tree_param":{"num_deleted":"0","num_feature":"19","num_nodes":"15","size_leaf_vector":"1"}},{"base_weights":[-3.101525E-5,-1.0563601E0,1.1063704E0,-2.171942E0,-6.5571666E-1,5.920914E-1,1.9421096E0,-1.680255E-1,-9.3410276E-2,-4.5587867E-2,-1.1355359E-2,2.1407805E-2,5.5104792E-2,8.5184485E-2,1.4674094E-1],"categories":[],"categories_nodes":[],"categories_segments":[],"categories_sizes":[],"default_left":[0,0,0,0,0,0,0,0,0,0,0,0,0,0,0],"id":4,"left_children":[1,3,5,7,9,11,13,-1,-1,-1,-1,-1,-1,-1,-1],"loss_changes":[8.934895E3,1.7465996E3,1.6037349E3,3.6664697E2,3.1573853E2,1.9291284E2,3.3156104E2,0E0,0E0,0E0,0E0,0E0,0E0,0E0,0E0],"parents":[2147483647,0,0,1,1,2,2,3,3,4,4,5,5,6,6],"right_children":[2,4,6,8,10,12,14,-1,-1,-1,-1,-1,-1,-1,-1],"split_conditions":[1.09E7,1E6,3.7E7,7.9E4,5.4E6,2.7E7,1.02E8,-1.680255E-1,-9.3410276E-2,-4.5587867E-2,-1.1355359E-2,2.1407805E-2,5.5104792E-2,8.5184485E-2,1.4674094E-1],"split_indices":[1,1,1,1,1,1,1,0,0,0,0,0,0,0,0],"split_type":[0,0,0,0,0,0,0,0,0,0,0,0,0,0,0],"sum_hessian":[7.643E3,3.91E3,3.733E3,1.032E3,2.878E3,2.312E3,1.421E3,2.08E2,8.24E2,1.801E3,1.077E3,1.751E3,5.61E2,1.148E3,2.73E2],"tree_param":{"num_deleted":"0","num_feature":"19","num_nodes":"15","size_leaf_vector":"1"}},{"base_weights":[-3.1002277E-5,-9.3620396E-1,1.1293205E0,-1.7104598E0,-3.882467E-1,7.584215E-1,2.1424804E0,-1.4761041E-1,-7.272653E-2,-2.7183577E-2,1.3110201E-2,2.3627907E-2,5.7957865E-2,9.398138E-2,1.4125633E-1],"categories":[],"categories_nodes":[],"categories_segments":[],"categories_sizes":[],"default_left":[0,0,0,0,0,0,0,0,0,0,0,0,0,0,0],"id":5,"left_children":[1,3,5,7,9,11,13,-1,-1,-1,-1,-1,-1,-1,-1],"loss_changes":[8.0828164E3,1.7727393E3,1.3004526E3,5.4613525E2,2.4772717E2,2.9019458E2,1.6120605E2,0E0,0E0,0E0,0E0,0E0,0E0,0E0,0E0],"parents":[2147483647,0,0,1,1,2,2,3,3,4,4,5,5,6,6],"right_children":[2,4,6,8,10,12,14,-1,-1,-1,-1,-1,-1,-1,-1],"split_conditions":[1.244056E7,2.1E6,5.1E7,1.25E5,1.6153953E7,2.7E7,1.1E8,-1.4761041E-1,-7.272653E-2,-2.7183577E-2,1.3110201E-2,2.3627907E-2,5.7957865E-2,9.398138E-2,1.4125633E-1],"split_indices":[1,1,1,1,3,1,1,0,0,0,0,0,0,0,0],"split_type":[0,0,0,0,0,0,0,0,0,0,0,0,0,0,0],"sum_hessian":[7.643E3,4.179E3,3.464E3,1.731E3,2.448E3,2.537E3,9.27E2,2.94E2,1.437E3,1.976E3,4.72E2,1.482E3,1.055E3,6.72E2,2.55E2],"tree_param":{"num_deleted":"0","num_feature":"19","num_nodes":"15","size_leaf_vector":"1"}},{"base_weights":[-1.8895327E-5,-9.545966E-1,9.9980795E-1,-2.0249407E0,-6.076342E-1,6.5701336E-1,2.0356102E0,-1.8415529E-1,-9.232232E-2,-4.575076E-2,-1.3848095E-2,1.9443858E-2,5.5062678E-2,8.928933E-2,1.342211E-1],"categories":[],"categories_nodes":[],"categories_segments":[],"categories_sizes":[],"default_left":[0,0,0,0,0,0,0,0,0,0,0,0,0,0,0],"id":6,"left_children":[1,3,5,7,9,11,13,-1,-1,-1,-1,-1,-1,-1,-1],"loss_changes":[7.296483E3,1.4511943E3,1.3244839E3,2.764458E2,3.0009973E2,3.3393286E2,1.4562427E2,0E0,0E0,0E0,0E0,0E0,0E0,0E0,0E0],"parents":[2147483647,0,0,1,1,2,2,3,3,4,4,5,5,6,6],"right_children":[2,4,6,8,10,12,14,-1,-1,-1,-1,-1,-1,-1,-1],"split_conditions":[1.09E7,8.33333E5,5.1E7,6.1E1,1.04E2,2.7E7,1.1E8,-1.8415529E-1,-9.232232E-2,-4.575076E-2,-1.3848095E-2,1.9443858E-2,5.5062678E-2,8.928933E-2,1.342211E-1],"split_indices":[1,1,1,0,0,1,1,0,0,0,0,0,0,0,0],"split_type":[0,0,0,0,0,0,0,0,0,0,0,0,0,0,0],"sum_hessian":[7.643E3,3.91E3,3.733E3,9.56E2,2.954E3,2.806E3,9.27E2,9.1E1,8.65E2,1.53E3,1.424E3,1.751E3,1.055E3,6.72E2,2.55E2],"tree_param":{"num_deleted":"0","num_feature":"19","num_nodes":"15","size_leaf_vector":"1"}},{"base_weights":[-2.2890305E-5,-8.4612346E-1,1.0206698E0,-1.554906E0,-3.4450752E-1,6.862897E-1,1.9340708E0,-1.3448706E-1,-6.605089E-2,-2.4693737E-2,1.2913473E-2,2.1475771E-2,5.2312117E-2,8.483152E-2,1.2753622E-1],"categories":[],"categories_nodes":[],"categories_segments":[],"categories_sizes":[],"default_left":[0,0,0,0,0,0,0,0,0,0,0,0,0,0,0],"id":7,"left_children":[1,3,5,7,9,11,13,-1,-1,-1,-1,-1,-1,-1,-1],"loss_changes":[6.6022886E3,1.4856079E3,1.0569639E3,4.5616162E2,2.2062357E2,2.341294E2,1.3154858E2,0E0,0E0,0E0,0E0,0E0,0E0,0E0,0E0],"parents":[2147483647,0,0,1,1,2,2,3,3,4,4,5,5,6,6],"right_children":[2,4,6,8,10,12,14,-1,-1,-1,-1,-1,-1,-1,-1],"split_conditions":[1.244056E7,2.1E6,5.1E7,1.25E5,1.54E7,2.7E7,1.1E8,-1.3448706E-1,-6.605089E-2,-2.4693737E-2,1.2913473E-2,2.1475771E-2,5.2312117E-2,8.483152E-2,1.2753622E-1],"split_indices":[1,1,1,1,3,1,1,0,0,0,0,0,0,0,0],"split_type":[0,0,0,0,0,0,0,0,0,0,0,0,0,0,0],"sum_hessian":[7.643E3,4.179E3,3.464E3,1.731E3,2.448E3,2.537E3,9.27E2,2.94E2,1.437E3,1.962E3,4.86E2,1.482E3,1.055E3,6.72E2,2.55E2],"tree_param":{"num_deleted":"0","num_feature":"19","num_nodes":"15","size_leaf_vector":"1"}},{"base_weights":[-1.2008761E-5,-8.038681E-1,9.697192E-1,-1.716918E0,-4.5049497E-1,6.520046E-1,1.8375962E0,-1.3671099E-1,-7.340384E-2,-2.923431E-2,1.19416425E-2,2.0402754E-2,4.9698956E-2,8.059626E-2,1.2118429E-1],"categories":[],"categories_nodes":[],"categories_segments":[],"categories_sizes":[],"default_left":[0,0,0,0,0,0,0,0,0,0,0,0,0,0,0],"id":8,"left_children":[1,3,5,7,9,11,13,-1,-1,-1,-1,-1,-1,-1,-1],"loss_changes":[5.959463E3,1.3478923E3,9.542312E2,2.911548E2,2.7903253E2,2.113258E2,1.1883374E2,0E0,0E0,0E0,0E0,0E0,0E0,0E0,0E0],"parents":[2147483647,0,0,1,1,2,2,3,3,4,4,5,5,6,6],"right_children":[2,4,6,8,10,12,14,-1,-1,-1,-1,-1,-1,-1,-1],"split_conditions":[1.244056E7,1.091E6,5.1E7,1E5,1.6704697E7,2.7E7,1.1E8,-1.3671099E-1,-7.340384E-2,-2.923431E-2,1.19416425E-2,2.0402754E-2,4.9698956E-2,8.059626E-2,1.2118429E-1],"split_indices":[1,1,1,1,3,1,1,0,0,0,0,0,0,0,0],"split_type":[0,0,0,0,0,0,0,0,0,0,0,0,0,0,0],"sum_hessian":[7.643E3,4.179E3,3.464E3,1.165E3,3.014E3,2.537E3,9.27E2,2.27E2,9.38E2,2.523E3,4.91E2,1.482E3,1.055E3,6.72E2,2.55E2],"tree_param":{"num_deleted":"0","num_feature":"19","num_nodes":"15","size_leaf_vector":"1"}},{"base_weights":[-5.8440623E-6,-9.1617453E-1,7.7115613E-1,-1.7486327E0,-6.019197E-1,3.2942298E-1,1.422628E0,-1.629527E-1,-7.930765E-2,-4.507495E-2,-1.4080094E-2,9.8369615E-3,4.163886E-2,5.6538314E-2,9.937351E-2],"categories":[],"categories_nodes":[],"categories_segments":[],"categories_sizes":[],"default_left":[0,0,0,0,0,0,0,0,0,0,0,0,0,0,0],"id":9,"left_children":[1,3,5,7,9,11,13,-1,-1,-1,-1,-1,-1,-1,-1],"loss_changes":[5.4013027E3,9.1299194E2,1.1940925E3,2.2969067E2,2.43294E2,1.6513376E2,2.7421582E2,0E0,0E0,0E0,0E0,0E0,0E0,0E0,0E0],"parents":[2147483647,0,0,1,1,2,2,3,3,4,4,5,5,6,6],"right_children":[2,4,6,8,10,12,14,-1,-1,-1,-1,-1,-1,-1,-1],"split_conditions":[8.311205E6,8.33333E5,3.1E7,6.1E1,1.04E2,4.956847E7,7.1E7,-1.629527E-1,-7.930765E-2,-4.507495E-2,-1.4080094E-2,9.8369615E-3,4.163886E-2,5.6538314E-2,9.937351E-2],"split_indices":[1,1,1,0,0,3,1,0,0,0,0,0,0,0,0],"split_type":[0,0,0,0,0,0,0,0,0,0,0,0,0,0,0],"sum_hessian":[7.643E3,3.493E3,4.15E3,9.56E2,2.537E3,2.474E3,1.676E3,9.1E1,8.65E2,1.31E3,1.227E3,1.959E3,5.15E2,1.107E3,5.69E2],"tree_param":{"num_deleted":"0","num_feature":"19","num_nodes":"15","size_leaf_vector":"1"}},{"base_weights":[-1.7532187E-5,-7.8134704E-1,8.1834877E-1,-1.3482785E0,-3.305642E-1,5.138701E-1,1.5961647E0,-1.166768E-1,-5.726096E-2,-2.696742E-2,5.8329455E-4,1.205565E-2,3.8333893E-2,6.943173E-2,1.0894231E-1],"categories":[],"categories_nodes":[],"categories_segments":[],"categories_sizes":[],"default_left":[0,0,0,0,0,0,0,0,0,0,0,0,0,0,0],"id":10,"left_children":[1,3,5,7,9,11,13,-1,-1,-1,-1,-1,-1,-1,-1],"loss_changes":[4.8883184E3,9.990613E2,8.834966E2,3.4384106E2,1.5577214E2,1.849596E2,1.2394458E2,0E0,0E0,0E0,0E0,0E0,0E0,0E0,0E0],"parents":[2147483647,0,0,1,1,2,2,3,3,4,4,5,5,6,6],"right_children":[2,4,6,8,10,12,14,-1,-1,-1,-1,-1,-1,-1,-1],"split_conditions":[1.09E7,2.1E6,5E7,1.25E5,1.1E2,2.1E7,1.02E8,-1.166768E-1,-5.726096E-2,-2.696742E-2,5.8329455E-4,1.205565E-2,3.8333893E-2,6.943173E-2,1.0894231E-1],"split_indices":[1,1,1,1,0,1,1,0,0,0,0,0,0,0,0],"split_type":[0,0,0,0,0,0,0,0,0,0,0,0,0,0,0],"sum_hessian":[7.643E3,3.91E3,3.733E3,1.731E3,2.179E3,2.684E3,1.049E3,2.94E2,1.437E3,1.353E3,8.26E2,1.292E3,1.392E3,7.76E2,2.73E2],"tree_param":{"num_deleted":"0","num_feature":"19","num_nodes":"15","size_leaf_vector":"1"}},{"base_weights":[-1.3176401E-5,-8.2889426E-1,6.9767666E-1,-1.7063111E0,-5.7941884E-1,2.9781586E-1,1.2873951E0,-1.5214545E-1,-7.650801E-2,-4.243375E-2,-1.4341714E-2,8.674065E-3,3.8475867E-2,5.1125433E-2,9.000193E-2],"categories":[],"categories_nodes":[],"categories_segments":[],"categories_sizes":[],"default_left":[0,0,0,0,0,0,0,0,0,0,0,0,0,0,0],"id":11,"left_children":[1,3,5,7,9,11,13,-1,-1,-1,-1,-1,-1,-1,-1],"loss_changes":[4.421118E3,7.6382666E2,9.7844446E2,1.7734155E2,2.1419635E2,1.450223E2,2.2588306E2,0E0,0E0,0E0,0E0,0E0,0E0,0E0,0E0],"parents":[2147483647,0,0,1,1,2,2,3,3,4,4,5,5,6,6],"right_children":[2,4,6,8,10,12,14,-1,-1,-1,-1,-1,-1,-1,-1],"split_conditions":[8.311205E6,6E5,3.1E7,6.1E1,1.04E2,4.956847E7,7.1E7,-1.5214545E-1,-7.650801E-2,-4.243375E-2,-1.4341714E-2,8.674065E-3,3.8475867E-2,5.1125433E-2,9.000193E-2],"split_indices":[1,1,1,0,0,3,1,0,0,0,0,0,0,0,0],"split_type":[0,0,0,0,0,0,0,0,0,0,0,0,0,0,0],"sum_hessian":[7.643E3,3.493E3,4.15E3,7.72E2,2.721E3,2.474E3,1.676E3,8.8E1,6.84E2,1.416E3,1.305E3,1.959E3,5.15E2,1.107E3,5.69E2],"tree_param":{"num_deleted":"0","num_feature":"19","num_nodes":"15","size_leaf_vector":"1"}},{"base_weights":[-2.5259644E-5,-6.194823E-1,8.485118E-1,-1.2261593E0,-2.2834231E-1,5.8221805E-1,1.5073057E0,-1.13895476E-1,-5.330049E-2,-1.815783E-2,1.3717743E-2,1.924978E-2,4.070004E-2,6.5771826E-2,1.0029121E-1],"categories":[],"categories_nodes":[],"categories_segments":[],"categories_sizes":[],"default_left":[0,0,0,0,0,0,0,0,0,0,0,0,0,0,0],"id":12,"left_children":[1,3,5,7,9,11,13,-1,-1,-1,-1,-1,-1,-1,-1],"loss_changes":[4.0184585E3,1.0483295E3,5.650681E2,2.8930518E2,1.8226747E2,1.0478027E2,8.6125E1,0E0,0E0,0E0,0E0,0E0,0E0,0E0,0E0],"parents":[2147483647,0,0,1,1,2,2,3,3,4,4,5,5,6,6],"right_children":[2,4,6,8,10,12,14,-1,-1,-1,-1,-1,-1,-1,-1],"split_conditions":[1.5E7,2.1E6,5.1E7,1E5,1.6153953E7,2.7E7,1.1E8,-1.13895476E-1,-5.330049E-2,-1.815783E-2,1.3717743E-2,1.924978E-2,4.070004E-2,6.5771826E-2,1.0029121E-1],"split_indices":[1,1,1,1,3,1,1,0,0,0,0,0,0,0,0],"split_type":[0,0,0,0,0,0,0,0,0,0,0,0,0,0,0],"sum_hessian":[7.643E3,4.418E3,3.225E3,1.731E3,2.687E3,2.298E3,9.27E2,2.27E2,1.504E3,2.119E3,5.68E2,1.243E3,1.055E3,6.72E2,2.55E2],"tree_param":{"num_deleted":"0","num_feature":"19","num_nodes":"15","size_leaf_vector":"1"}},{"base_weights":[-1.66636E-5,-8.978603E-1,5.2887315E-1,-1.5679439E0,-6.5726596E-1,1.8931748E-1,1.1633264E0,-1.3960563E-1,-7.002454E-2,-4.2813536E-2,-1.592857E-2,-2.5454388E-4,2.4085524E-2,4.6133287E-2,8.1454806E-2],"categories":[],"categories_nodes":[],"categories_segments":[],"categories_sizes":[],"default_left":[0,0,0,0,0,0,0,0,0,0,0,0,0,0,0],"id":13,"left_children":[1,3,5,7,9,11,13,-1,-1,-1,-1,-1,-1,-1,-1],"loss_changes":[3.6303071E3,4.558623E2,1.0362239E3,1.4942273E2,1.4039484E2,1.7820728E2,1.8647607E2,0E0,0E0,0E0,0E0,0E0,0E0,0E0,0E0],"parents":[2147483647,0,0,1,1,2,2,3,3,4,4,5,5,6,6],"right_children":[2,4,6,8,10,12,14,-1,-1,-1,-1,-1,-1,-1,-1],"split_conditions":[5.4E6,5.39E5,3.1E7,6.1E1,1.09E2,1.64E7,7.1E7,-1.3960563E-1,-7.002454E-2,-4.2813536E-2,-1.592857E-2,-2.5454388E-4,2.4085524E-2,4.6133287E-2,8.1454806E-2],"split_indices":[1,1,1,0,0,1,1,0,0,0,0,0,0,0,0],"split_type":[0,0,0,0,0,0,0,0,0,0,0,0,0,0,0],"sum_hessian":[7.643E3,2.833E3,4.81E3,7.47E2,2.086E3,3.134E3,1.676E3,8.8E1,6.59E2,1.313E3,7.73E2,1.883E3,1.251E3,1.107E3,5.69E2],"tree_param":{"num_deleted":"0","num_feature":"19","num_nodes":"15","size_leaf_vector":"1"}},{"base_weights":[-3.138941E-5,-5.966005E-1,7.196393E-1,-1.1120256E0,-2.3183404E-1,4.836116E-1,1.3643792E0,-1.06148206E-1,-4.863284E-2,-1.7648993E-2,1.2847833E-2,1.6928157E-2,3.9972927E-2,5.936092E-2,9.123942E-2],"categories":[],"categories_nodes":[],"categories_segments":[],"categories_sizes":[],"default_left":[0,0,0,0,0,0,0,0,0,0,0,0,0,0,0],"id":14,"left_children":[1,3,5,7,9,11,13,-1,-1,-1,-1,-1,-1,-1,-1],"loss_changes":[3.282253E3,7.856233E2,5.2663135E2,2.4196216E2,1.4510811E2,1.1600305E2,7.352734E1,0E0,0E0,0E0,0E0,0E0,0E0,0E0,0E0],"parents":[2147483647,0,0,1,1,2,2,3,3,4,4,5,5,6,6],"right_children":[2,4,6,8,10,12,14,-1,-1,-1,-1,-1,-1,-1,-1],"split_conditions":[1.244056E7,2.1E6,5.1E7,7.9E4,1.54E7,4.956847E7,1.1E8,-1.06148206E-1,-4.863284E-2,-1.7648993E-2,1.2847833E-2,1.6928157E-2,3.9972927E-2,5.936092E-2,9.123942E-2],"split_indices":[1,1,1,1,3,3,1,0,0,0,0,0,0,0,0],"split_type":[0,0,0,0,0,0,0,0,0,0,0,0,0,0,0],"sum_hessian":[7.643E3,4.179E3,3.464E3,1.731E3,2.448E3,2.537E3,9.27E2,2.08E2,1.523E3,1.962E3,4.86E2,1.74E3,7.97E2,6.72E2,2.55E2],"tree_param":{"num_deleted":"0","num_feature":"19","num_nodes":"15","size_leaf_vector":"1"}},{"base_weights":[-2.3502633E-5,-8.138231E-1,4.7935876E-1,-1.4252659E0,-5.942864E-1,1.3190684E-1,9.921535E-1,-1.2803763E-1,-6.349938E-2,-3.9133098E-2,-1.3685912E-2,2.3893247E-4,2.5288794E-2,3.868859E-2,7.2038345E-2],"categories":[],"categories_nodes":[],"categories_segments":[],"categories_sizes":[],"default_left":[0,0,0,0,0,0,0,0,0,0,0,0,0,0,0],"id":15,"left_children":[1,3,5,7,9,11,13,-1,-1,-1,-1,-1,-1,-1,-1],"loss_changes":[2.9824756E3,3.7957227E2,8.5705237E2,1.2863257E2,1.25813965E2,1.3635912E2,1.8923901E2,0E0,0E0,0E0,0E0,0E0,0E0,0E0,0E0],"parents":[2147483647,0,0,1,1,2,2,3,3,4,4,5,5,6,6],"right_children":[2,4,6,8,10,12,14,-1,-1,-1,-1,-1,-1,-1,-1],"split_conditions":[5.4E6,5.39E5,2.75E7,6.1E1,1.09E2,2.9115762E7,7E7,-1.2803763E-1,-6.349938E-2,-3.9133098E-2,-1.3685912E-2,2.3893247E-4,2.5288794E-2,3.868859E-2,7.2038345E-2],"split_indices":[1,1,1,0,0,3,1,0,0,0,0,0,0,0,0],"split_type":[0,0,0,0,0,0,0,0,0,0,0,0,0,0,0],"sum_hessian":[7.643E3,2.833E3,4.81E3,7.47E2,2.086E3,2.868E3,1.942E3,8.8E1,6.59E2,1.313E3,7.73E2,2.141E3,7.27E2,1.308E3,6.34E2],"tree_param":{"num_deleted":"0","num_feature":"19","num_nodes":"15","size_leaf_vector":"1"}},{"base_weights":[-3.651697E-5,-5.082467E-1,6.9611377E-1,-1.0084785E0,-1.8573561E-1,4.7833142E-1,1.2348913E0,-8.829198E-2,-4.262038E-2,-1.8967373E-2,6.5874825E-3,2.0026192E-2,4.6196148E-2,5.416695E-2,8.517967E-2],"categories":[],"categories_nodes":[],"categories_segments":[],"categories_sizes":[],"default_left":[0,0,0,0,0,0,0,0,0,0,0,0,0,0,0],"id":16,"left_children":[1,3,5,7,9,11,13,-1,-1,-1,-1,-1,-1,-1,-1],"loss_changes":[2.7047295E3,7.127313E2,3.7793616E2,2.032207E2,1.652784E2,7.933722E1,6.4072876E1,0E0,0E0,0E0,0E0,0E0,0E0,0E0,0E0],"parents":[2147483647,0,0,1,1,2,2,3,3,4,4,5,5,6,6],"right_children":[2,4,6,8,10,12,14,-1,-1,-1,-1,-1,-1,-1,-1],"split_conditions":[1.5E7,2.1E6,5.1E7,1.25E5,1.1E2,1.2503E8,1.2E8,-8.829198E-2,-4.262038E-2,-1.8967373E-2,6.5874825E-3,2.0026192E-2,4.6196148E-2,5.416695E-2,8.517967E-2],"split_indices":[1,1,1,1,0,4,1,0,0,0,0,0,0,0,0],"split_type":[0,0,0,0,0,0,0,0,0,0,0,0,0,0,0],"sum_hessian":[7.643E3,4.418E3,3.225E3,1.731E3,2.687E3,2.298E3,9.27E2,2.94E2,1.437E3,1.669E3,1.018E3,1.958E3,3.4E2,7.03E2,2.24E2],"tree_param":{"num_deleted":"0","num_feature":"19","num_nodes":"15","size_leaf_vector":"1"}},{"base_weights":[-2.6225545E-5,-6.876453E-1,4.6821395E-1,-1.2937438E0,-4.944328E-1,1.8185095E-1,9.5835483E-1,-1.1767625E-1,-5.744369E-2,-3.7018824E-2,-1.0856619E-2,4.146109E-3,3.0494953E-2,3.997923E-2,7.150634E-2],"categories":[],"categories_nodes":[],"categories_segments":[],"categories_sizes":[],"default_left":[0,0,0,0,0,0,0,0,0,0,0,0,0,0,0],"id":17,"left_children":[1,3,5,7,9,11,13,-1,-1,-1,-1,-1,-1,-1,-1],"loss_changes":[2.4614673E3,3.6203687E2,6.381749E2,1.1213696E2,1.6010986E2,1.2156792E2,1.2446936E2,0E0,0E0,0E0,0E0,0E0,0E0,0E0,0E0],"parents":[2147483647,0,0,1,1,2,2,3,3,4,4,5,5,6,6],"right_children":[2,4,6,8,10,12,14,-1,-1,-1,-1,-1,-1,-1,-1],"split_conditions":[6.5E6,5.39E5,3.1E7,6.1E1,1.04E2,4.956847E7,8.4E7,-1.1767625E-1,-5.744369E-2,-3.7018824E-2,-1.0856619E-2,4.146109E-3,3.0494953E-2,3.997923E-2,7.150634E-2],"split_indices":[1,1,1,0,0,3,1,0,0,0,0,0,0,0,0],"split_type":[0,0,0,0,0,0,0,0,0,0,0,0,0,0,0],"sum_hessian":[7.643E3,3.096E3,4.547E3,7.47E2,2.349E3,2.871E3,1.676E3,8.8E1,6.59E2,1.244E3,1.105E3,2.333E3,5.38E2,1.256E3,4.2E2],"tree_param":{"num_deleted":"0","num_feature":"19","num_nodes":"15","size_leaf_vector":"1"}},{"base_weights":[-3.5237543E-5,-7.036168E-1,4.1442123E-1,-1.2292908E0,-5.148732E-1,1.1471375E-1,8.567508E-1,-1.1185856E-1,-5.457586E-2,-9.833859E-3,-3.4623943E-2,3.4603065E-5,2.2502152E-2,3.343505E-2,6.2152542E-2],"categories":[],"categories_nodes":[],"categories_segments":[],"categories_sizes":[],"default_left":[0,0,0,0,0,0,0,0,0,0,0,0,0,0,0],"id":18,"left_children":[1,3,5,7,9,11,13,-1,-1,-1,-1,-1,-1,-1,-1],"loss_changes":[2.229312E3,2.8054968E2,6.376936E2,1.0142493E2,1.1780731E2,1.0969537E2,1.403153E2,0E0,0E0,0E0,0E0,0E0,0E0,0E0,0E0],"parents":[2147483647,0,0,1,1,2,2,3,3,4,4,5,5,6,6],"right_children":[2,4,6,8,10,12,14,-1,-1,-1,-1,-1,-1,-1,-1],"split_conditions":[5.4E6,5.39E5,2.75E7,6.1E1,1E0,2.9115762E7,7E7,-1.1185856E-1,-5.457586E-2,-9.833859E-3,-3.4623943E-2,3.4603065E-5,2.2502152E-2,3.343505E-2,6.2152542E-2],"split_indices":[1,1,1,0,5,3,1,0,0,0,0,0,0,0,0],"split_type":[0,0,0,0,0,0,0,0,0,0,0,0,0,0,0],"sum_hessian":[7.643E3,2.833E3,4.81E3,7.47E2,2.086E3,2.868E3,1.942E3,8.8E1,6.59E2,7.48E2,1.338E3,2.141E3,7.27E2,1.308E3,6.34E2],"tree_param":{"num_deleted":"0","num_feature":"19","num_nodes":"15","size_leaf_vector":"1"}},{"base_weights":[-4.569153E-5,-4.0602872E-1,6.539919E-1,-8.688646E-1,-1.3100456E-1,4.6255517E-1,1.0660725E0,-8.269985E-2,-3.756867E-2,-1.1348095E-2,2.0954257E-2,1.8160706E-2,4.0109623E-2,4.7884148E-2,7.981615E-2],"categories":[],"categories_nodes":[],"categories_segments":[],"categories_sizes":[],"default_left":[0,0,0,0,0,0,0,0,0,0,0,0,0,0,0],"id":19,"left_children":[1,3,5,7,9,11,13,-1,-1,-1,-1,-1,-1,-1,-1],"loss_changes":[2.0299626E3,6.0031805E2,2.3048914E2,1.6092603E2,1.5633916E2,6.722223E1,5.180664E1,0E0,0E0,0E0,0E0,0E0,0E0,0E0,0E0],"parents":[2147483647,0,0,1,1,2,2,3,3,4,4,5,5,6,6],"right_children":[2,4,6,8,10,12,14,-1,-1,-1,-1,-1,-1,-1,-1],"split_conditions":[1.64E7,2.2E6,5.1E7,1E5,2.8356188E7,9.841271E7,1.4E8,-8.269985E-2,-3.756867E-2,-1.1348095E-2,2.0954257E-2,1.8160706E-2,4.0109623E-2,4.7884148E-2,7.981615E-2],"split_indices":[1,1,1,1,3,4,1,0,0,0,0,0,0,0,0],"split_type":[0,0,0,0,0,0,0,0,0,0,0,0,0,0,0],"sum_hessian":[7.643E3,4.716E3,2.927E3,1.757E3,2.959E3,2E3,9.27E2,2.27E2,1.53E3,2.52E3,4.39E2,1.549E3,4.51E2,7.72E2,1.55E2],"tree_param":{"num_deleted":"0","num_feature":"19","num_nodes":"15","size_leaf_vector":"1"}},{"base_weights":[-3.3321212E-5,-5.3411865E-1,4.495196E-1,-9.7077566E-1,-3.152796E-1,2.2375254E-1,8.8263816E-1,-1.0036363E-1,-4.38481E-2,-2.764442E-2,-3.559908E-3,6.3667386E-3,2.7414193E-2,3.836646E-2,6.814786E-2],"categories":[],"categories_nodes":[],"categories_segments":[],"categories_sizes":[],"default_left":[0,0,0,0,0,0,0,0,0,0,0,0,0,0,0],"id":20,"left_children":[1,3,5,7,9,11,13,-1,-1,-1,-1,-1,-1,-1,-1],"loss_changes":[1.8355618E3,3.3357233E2,4.0570337E2,1.1161865E2,1.3503307E2,8.53535E1,7.771179E1,0E0,0E0,0E0,0E0,0E0,0E0,0E0,0E0],"parents":[2147483647,0,0,1,1,2,2,3,3,4,4,5,5,6,6],"right_children":[2,4,6,8,10,12,14,-1,-1,-1,-1,-1,-1,-1,-1],"split_conditions":[8.311205E6,1.091E6,3.7E7,6.1E1,1.04E2,4.956847E7,1.02E8,-1.0036363E-1,-4.38481E-2,-2.764442E-2,-3.559908E-3,6.3667386E-3,2.7414193E-2,3.836646E-2,6.814786E-2],"split_indices":[1,1,1,0,0,3,1,0,0,0,0,0,0,0,0],"split_type":[0,0,0,0,0,0,0,0,0,0,0,0,0,0,0],"sum_hessian":[7.643E3,3.493E3,4.15E3,1.165E3,2.328E3,2.729E3,1.421E3,9.5E1,1.07E3,1.179E3,1.149E3,2.105E3,6.24E2,1.148E3,2.73E2],"tree_param":{"num_deleted":"0","num_feature":"19","num_nodes":"15","size_leaf_vector":"1"}},{"base_weights":[-3.626408E-5,-3.6836633E-1,5.933425E-1,-7.8774047E-1,-1.1916766E-1,4.5099562E-1,1.0474722E0,-7.74465E-2,-3.4229722E-2,-1.4557572E-2,8.060685E-3,1.8526278E-2,4.1495275E-2,4.6504945E-2,7.2465345E-2],"categories":[],"categories_nodes":[],"categories_segments":[],"categories_sizes":[],"default_left":[0,0,0,0,0,0,0,0,0,0,0,0,0,0,0],"id":21,"left_children":[1,3,5,7,9,11,13,-1,-1,-1,-1,-1,-1,-1,-1],"loss_changes":[1.6708855E3,4.9286798E2,1.8880505E2,1.3696655E2,1.4278122E2,6.771762E1,3.1572937E1,0E0,0E0,0E0,0E0,0E0,0E0,0E0,0E0],"parents":[2147483647,0,0,1,1,2,2,3,3,4,4,5,5,6,6],"right_children":[2,4,6,8,10,12,14,-1,-1,-1,-1,-1,-1,-1,-1],"split_conditions":[1.64E7,2.2E6,6.5E7,7.9E4,1.1E2,1.2503E8,1.4E8,-7.74465E-2,-3.4229722E-2,-1.4557572E-2,8.060685E-3,1.8526278E-2,4.1495275E-2,4.6504945E-2,7.2465345E-2],"split_indices":[1,1,1,1,0,4,1,0,0,0,0,0,0,0,0],"split_type":[0,0,0,0,0,0,0,0,0,0,0,0,0,0,0],"sum_hessian":[7.643E3,4.716E3,2.927E3,1.757E3,2.959E3,2.23E3,6.97E2,2.08E2,1.549E3,1.834E3,1.125E3,1.841E3,3.89E2,5.42E2,1.55E2],"tree_param":{"num_deleted":"0","num_feature":"19","num_nodes":"15","size_leaf_vector":"1"}},{"base_weights":[-2.6470201E-5,-5.82263E-1,3.4294972E-1,-1.0201943E0,-4.250254E-1,9.278603E-2,6.9966686E-1,-9.434273E-2,-4.5089036E-2,-6.639344E-3,-2.9408911E-2,-6.076281E-3,1.2145149E-2,2.7930066E-2,5.2419044E-2],"categories":[],"categories_nodes":[],"categories_segments":[],"categories_sizes":[],"default_left":[0,0,0,0,0,0,0,0,0,0,0,0,0,0,0],"id":22,"left_children":[1,3,5,7,9,11,13,-1,-1,-1,-1,-1,-1,-1,-1],"loss_changes":[1.526655E3,1.947135E2,4.2925757E2,7.506146E1,9.942911E1,9.104356E1,9.696118E1,0E0,0E0,0E0,0E0,0E0,0E0,0E0,0E0],"parents":[2147483647,0,0,1,1,2,2,3,3,4,4,5,5,6,6],"right_children":[2,4,6,8,10,12,14,-1,-1,-1,-1,-1,-1,-1,-1],"split_conditions":[5.4E6,5.39E5,2.7E7,6.1E1,1E0,1.01E2,7.1E7,-9.434273E-2,-4.5089036E-2,-6.639344E-3,-2.9408911E-2,-6.076281E-3,1.2145149E-2,2.7930066E-2,5.2419044E-2],"split_indices":[1,1,1,0,5,0,1,0,0,0,0,0,0,0,0],"split_type":[0,0,0,0,0,0,0,0,0,0,0,0,0,0,0],"sum_hessian":[7.643E3,2.833E3,4.81E3,7.47E2,2.086E3,2.828E3,1.982E3,8.8E1,6.59E2,7.48E2,1.338E3,1.165E3,1.663E3,1.413E3,5.69E2],"tree_param":{"num_deleted":"0","num_feature":"19","num_nodes":"15","size_leaf_vector":"1"}},{"base_weights":[-3.6882146E-5,-3.6286727E-1,4.96971E-1,-7.76249E-1,-1.6422282E-1,3.432871E-1,8.7716746E-1,-8.6787365E-2,-3.515107E-2,-2.031537E-2,1.9528216E-3,1.06525365E-2,2.7164701E-2,3.759701E-2,6.237361E-2],"categories":[],"categories_nodes":[],"categories_segments":[],"categories_sizes":[],"default_left":[0,0,0,0,0,0,0,0,0,0,0,0,0,0,0],"id":23,"left_children":[1,3,5,7,9,11,13,-1,-1,-1,-1,-1,-1,-1,-1],"loss_changes":[1.3786194E3,3.627431E2,1.8819427E2,9.9535034E1,1.4695923E2,5.9768982E1,4.209546E1,0E0,0E0,0E0,0E0,0E0,0E0,0E0,0E0],"parents":[2147483647,0,0,1,1,2,2,3,3,4,4,5,5,6,6],"right_children":[2,4,6,8,10,12,14,-1,-1,-1,-1,-1,-1,-1,-1],"split_conditions":[1.5E7,1.547E6,5.1E7,6.1E1,1.02E2,1E0,1.7934296E8,-8.6787365E-2,-3.515107E-2,-2.031537E-2,1.9528216E-3,1.06525365E-2,2.7164701E-2,3.759701E-2,6.237361E-2],"split_indices":[1,1,1,0,0,8,3,0,0,0,0,0,0,0,0],"split_type":[0,0,0,0,0,0,0,0,0,0,0,0,0,0,0],"sum_hessian":[7.643E3,4.418E3,3.225E3,1.433E3,2.985E3,2.298E3,9.27E2,1E2,1.333E3,1.362E3,1.623E3,1.393E3,9.05E2,6.95E2,2.32E2],"tree_param":{"num_deleted":"0","num_feature":"19","num_nodes":"15","size_leaf_vector":"1"}},{"base_weights":[-3.5443773E-5,-5.29489E-1,3.11848E-1,-1.2358894E0,-4.472379E-1,1.1358664E-1,6.822938E-1,-8.587151E-2,-5.4203685E-2,-8.580714E-3,-2.913011E-2,-4.7016595E-3,1.2657866E-2,2.3139533E-2,4.331758E-2],"categories":[],"categories_nodes":[],"categories_segments":[],"categories_sizes":[],"default_left":[0,0,0,0,0,0,0,0,0,0,0,0,0,0,0],"id":24,"left_children":[1,3,5,7,9,11,13,-1,-1,-1,-1,-1,-1,-1,-1],"loss_changes":[1.262402E3,1.6410883E2,3.5326675E2,1.9704315E1,9.466635E1,9.0868706E1,6.735199E1,0E0,0E0,0E0,0E0,0E0,0E0,0E0,0E0],"parents":[2147483647,0,0,1,1,2,2,3,3,4,4,5,5,6,6],"right_children":[2,4,6,8,10,12,14,-1,-1,-1,-1,-1,-1,-1,-1],"split_conditions":[5.4E6,1.25E5,3.1E7,5.4E1,1E0,1.01E2,6.996567E7,-8.587151E-2,-5.4203685E-2,-8.580714E-3,-2.913011E-2,-4.7016595E-3,1.2657866E-2,2.3139533E-2,4.331758E-2],"split_indices":[1,1,1,0,5,0,4,0,0,0,0,0,0,0,0],"split_type":[0,0,0,0,0,0,0,0,0,0,0,0,0,0,0],"sum_hessian":[7.643E3,2.833E3,4.81E3,2.94E2,2.539E3,3.134E3,1.676E3,6.8E1,2.26E2,8.37E2,1.702E3,1.26E3,1.874E3,7.66E2,9.1E2],"tree_param":{"num_deleted":"0","num_feature":"19","num_nodes":"15","size_leaf_vector":"1"}},{"base_weights":[-4.7126032E-5,-3.0457217E-1,4.9054188E-1,-6.173325E-1,-7.49187E-2,3.7263307E-1,8.667081E-1,-5.8728483E-2,-2.6022166E-2,-8.070129E-3,1.9568836E-2,1.4988913E-2,3.5788823E-2,4.00383E-2,7.5371765E-2],"categories":[],"categories_nodes":[],"categories_segments":[],"categories_sizes":[],"default_left":[0,0,0,0,0,0,0,0,0,0,0,0,0,0,0],"id":25,"left_children":[1,3,5,7,9,11,13,-1,-1,-1,-1,-1,-1,-1,-1],"loss_changes":[1.1421372E3,3.3875934E2,1.2954352E2,1.07207214E2,1.09793015E2,5.555966E1,2.8284058E1,0E0,0E0,0E0,0E0,0E0,0E0,0E0,0E0],"parents":[2147483647,0,0,1,1,2,2,3,3,4,4,5,5,6,6],"right_children":[2,4,6,8,10,12,14,-1,-1,-1,-1,-1,-1,-1,-1],"split_conditions":[1.64E7,3E6,6.5E7,1.25E5,2.8356188E7,1.2503E8,1.8E8,-5.8728483E-2,-2.6022166E-2,-8.070129E-3,1.9568836E-2,1.4988913E-2,3.5788823E-2,4.00383E-2,7.5371765E-2],"split_indices":[1,1,1,1,3,4,1,0,0,0,0,0,0,0,0],"split_type":[0,0,0,0,0,0,0,0,0,0,0,0,0,0,0],"sum_hessian":[7.643E3,4.716E3,2.927E3,1.996E3,2.72E3,2.23E3,6.97E2,2.94E2,1.702E3,2.295E3,4.25E2,1.841E3,3.89E2,6.34E2,6.3E1],"tree_param":{"num_deleted":"0","num_feature":"19","num_nodes":"15","size_leaf_vector":"1"}},{"base_weights":[-3.3064825E-5,-4.7963658E-1,2.824854E-1,-8.499694E-1,-3.4667605E-1,7.567264E-2,5.773875E-1,-7.905165E-2,-3.7504937E-2,-4.424214E-3,-2.4542129E-2,-3.2389592E-2,5.678999E-3,1.971019E-2,3.8868535E-2],"categories":[],"categories_nodes":[],"categories_segments":[],"categories_sizes":[],"default_left":[0,0,0,0,0,0,0,0,0,0,0,0,0,0,0],"id":26,"left_children":[1,3,5,7,9,11,13,-1,-1,-1,-1,-1,-1,-1,-1],"loss_changes":[1.0358734E3,1.3925055E2,2.9337683E2,5.342682E1,7.764015E1,7.765779E1,7.2338135E1,0E0,0E0,0E0,0E0,0E0,0E0,0E0,0E0],"parents":[2147483647,0,0,1,1,2,2,3,3,4,4,5,5,6,6],"right_children":[2,4,6,8,10,12,14,-1,-1,-1,-1,-1,-1,-1,-1],"split_conditions":[5.4E6,5.39E5,2.7E7,6.1E1,1E0,2.816116E6,7.908251E7,-7.905165E-2,-3.7504937E-2,-4.424214E-3,-2.4542129E-2,-3.2389592E-2,5.678999E-3,1.971019E-2,3.8868535E-2],"split_indices":[1,1,1,0,5,3,4,0,0,0,0,0,0,0,0],"split_type":[0,0,0,0,0,0,0,0,0,0,0,0,0,0,0],"sum_hessian":[7.643E3,2.833E3,4.81E3,7.47E2,2.086E3,2.828E3,1.982E3,8.8E1,6.59E2,7.48E2,1.338E3,1.4E2,2.688E3,1.036E3,9.46E2],"tree_param":{"num_deleted":"0","num_feature":"19","num_nodes":"15","size_leaf_vector":"1"}},{"base_weights":[-4.6097128E-5,-3.4306875E-1,3.592366E-1,-6.984287E-1,-1.9205171E-1,2.2524805E-1,7.0152235E-1,-7.364797E-2,-3.141754E-2,-1.9494565E-2,6.8574E-4,7.3203603E-3,2.549401E-2,3.1356405E-2,6.364259E-2],"categories":[],"categories_nodes":[],"categories_segments":[],"categories_sizes":[],"default_left":[0,0,0,0,0,0,0,0,0,0,0,0,0,0,0],"id":27,"left_children":[1,3,5,7,9,11,13,-1,-1,-1,-1,-1,-1,-1,-1],"loss_changes":[9.421858E2,2.0975125E2,1.710921E2,6.2362E1,1.1179162E2,6.0178467E1,4.3830566E1,0E0,0E0,0E0,0E0,0E0,0E0,0E0,0E0],"parents":[2147483647,0,0,1,1,2,2,3,3,4,4,5,5,6,6],"right_children":[2,4,6,8,10,12,14,-1,-1,-1,-1,-1,-1,-1,-1],"split_conditions":[1.09E7,1.091E6,5E7,6.1E1,1.04E2,6.623028E7,2.8457885E8,-7.364797E-2,-3.141754E-2,-1.9494565E-2,6.8574E-4,7.3203603E-3,2.549401E-2,3.1356405E-2,6.364259E-2],"split_indices":[1,1,1,0,0,3,3,0,0,0,0,0,0,0,0],"split_type":[0,0,0,0,0,0,0,0,0,0,0,0,0,0,0],"sum_hessian":[7.643E3,3.91E3,3.733E3,1.165E3,2.745E3,2.684E3,1.049E3,9.5E1,1.07E3,1.399E3,1.346E3,2.103E3,5.81E2,9.3E2,1.19E2],"tree_param":{"num_deleted":"0","num_feature":"19","num_nodes":"15","size_leaf_vector":"1"}},{"base_weights":[-4.3213025E-5,-2.6373702E-1,4.247668E-1,-5.3510267E-1,-6.447903E-2,3.2659364E-1,7.7875805E-1,-5.6980815E-2,-2.3209063E-2,-1.049682E-2,8.801399E-3,9.451355E-3,2.4300162E-2,3.5631653E-2,6.78791E-2],"categories":[],"categories_nodes":[],"categories_segments":[],"categories_sizes":[],"default_left":[0,0,0,0,0,0,0,0,0,0,0,0,0,0,0],"id":28,"left_children":[1,3,5,7,9,11,13,-1,-1,-1,-1,-1,-1,-1,-1],"loss_changes":[8.563912E2,2.550221E2,1.0150079E2,8.508826E1,9.5227104E1,5.021422E1,2.3337006E1,0E0,0E0,0E0,0E0,0E0,0E0,0E0,0E0],"parents":[2147483647,0,0,1,1,2,2,3,3,4,4,5,5,6,6],"right_children":[2,4,6,8,10,12,14,-1,-1,-1,-1,-1,-1,-1,-1],"split_conditions":[1.64E7,3E6,7E7,7.9E4,1.1E2,5.0772584E7,1.8E8,-5.6980815E-2,-2.3209063E-2,-1.049682E-2,8.801399E-3,9.451355E-3,2.4300162E-2,3.5631653E-2,6.78791E-2],"split_indices":[1,1,1,1,0,4,1,0,0,0,0,0,0,0,0],"split_type":[0,0,0,0,0,0,0,0,0,0,0,0,0,0,0],"sum_hessian":[7.643E3,4.716E3,2.927E3,1.996E3,2.72E3,2.293E3,6.34E2,2.08E2,1.788E3,1.695E3,1.025E3,1.232E3,1.061E3,5.71E2,6.3E1],"tree_param":{"num_deleted":"0","num_feature":"19","num_nodes":"15","size_leaf_vector":"1"}},{"base_weights":[-3.3679524E-5,-3.8024575E-1,2.6799718E-1,-6.8388265E-1,-2.4829075E-1,1.3643828E-1,6.132157E-1,-7.240509E-2,-3.0956795E-2,-2.2230638E-2,-1.6934508E-3,-1.4208619E-3,1.4914683E-2,2.4795823E-2,4.4231746E-2],"categories":[],"categories_nodes":[],"categories_segments":[],"categories_sizes":[],"default_left":[0,0,0,0,0,0,0,0,0,0,0,0,0,0,0],"id":29,"left_children":[1,3,5,7,9,11,13,-1,-1,-1,-1,-1,-1,-1,-1],"loss_changes":[7.7909094E2,1.264801E2,2.0356424E2,4.645645E1,9.2805984E1,8.667406E1,3.894397E1,0E0,0E0,0E0,0E0,0E0,0E0,0E0,0E0],"parents":[2147483647,0,0,1,1,2,2,3,3,4,4,5,5,6,6],"right_children":[2,4,6,8,10,12,14,-1,-1,-1,-1,-1,-1,-1,-1],"split_conditions":[6.9E6,8.33333E5,6.84743E7,3.2E1,1.04E2,1.9E7,1E0,-7.240509E-2,-3.0956795E-2,-2.2230638E-2,-1.6934508E-3,-1.4208619E-3,1.4914683E-2,2.4795823E-2,4.4231746E-2],"split_indices":[1,1,3,0,0,1,12,0,0,0,0,0,0,0,0],"split_type":[0,0,0,0,0,0,0,0,0,0,0,0,0,0,0],"sum_hessian":[7.643E3,3.16E3,4.483E3,9.56E2,2.204E3,3.247E3,1.236E3,7.3E1,8.83E2,1.15E3,1.054E3,1.609E3,1.638E3,8.65E2,3.71E2],"tree_param":{"num_deleted":"0","num_feature":"19","num_nodes":"15","size_leaf_vector":"1"}},{"base_weights":[-3.7792775E-5,-3.9598864E-1,2.3320368E-1,-2.0281555E-1,-5.8364344E-1,1.0764993E-1,5.839366E-1,-1.2995233E-2,4.3392416E-2,-4.496358E-2,-1.1547632E-2,-1.9197988E-3,1.4085925E-2,2.3720386E-2,4.1931987E-2],"categories":[],"categories_nodes":[],"categories_segments":[],"categories_sizes":[],"default_left":[0,0,0,0,0,0,0,0,0,0,0,0,0,0,0],"id":30,"left_children":[1,3,5,7,9,11,13,-1,-1,-1,-1,-1,-1,-1,-1],"loss_changes":[7.060322E2,1.0261371E2,2.1179352E2,8.567583E1,1.5975793E2,9.0106384E1,3.4975952E1,0E0,0E0,0E0,0E0,0E0,0E0,0E0,0E0],"parents":[2147483647,0,0,1,1,2,2,3,3,4,4,5,5,6,6],"right_children":[2,4,6,8,10,12,14,-1,-1,-1,-1,-1,-1,-1,-1],"split_conditions":[5.4E6,1E0,6.623028E7,2.8356188E7,1.06E2,1.9E7,1E0,-1.2995233E-2,4.3392416E-2,-4.496358E-2,-1.1547632E-2,-1.9197988E-3,1.4085925E-2,2.3720386E-2,4.1931987E-2],"split_indices":[1,7,3,3,0,1,12,0,0,0,0,0,0,0,0],"split_type":[0,0,0,0,0,0,0,0,0,0,0,0,0,0,0],"sum_hessian":[7.643E3,2.833E3,4.81E3,1.397E3,1.436E3,3.543E3,1.267E3,1.327E3,7E1,7.57E2,6.79E2,1.927E3,1.616E3,8.88E2,3.79E2],"tree_param":{"num_deleted":"0","num_feature":"19","num_nodes":"15","size_leaf_vector":"1"}},{"base_weights":[-2.8884953E-5,-3.7619847E-1,2.215601E-1,-7.6963997E-1,-2.899397E-1,1.02271214E-1,5.5479217E-1,-4.220487E-2,-9.298739E-5,-4.56377E-3,-2.4073984E-2,-1.8238329E-3,1.3382072E-2,2.2211872E-2,3.999039E-2],"categories":[],"categories_nodes":[],"categories_segments":[],"categories_sizes":[],"default_left":[0,0,0,0,0,0,0,0,0,0,0,0,0,0,0],"id":31,"left_children":[1,3,5,7,9,11,13,-1,-1,-1,-1,-1,-1,-1,-1],"loss_changes":[6.3724927E2,9.595654E1,1.9118475E2,2.9096405E1,8.846533E1,8.132601E1,3.399179E1,0E0,0E0,0E0,0E0,0E0,0E0,0E0,0E0],"parents":[2147483647,0,0,1,1,2,2,3,3,4,4,5,5,6,6],"right_children":[2,4,6,8,10,12,14,-1,-1,-1,-1,-1,-1,-1,-1],"split_conditions":[5.4E6,3.22E5,6.623028E7,1E0,1E0,1.9E7,1.227E8,-4.220487E-2,-9.298739E-5,-4.56377E-3,-2.4073984E-2,-1.8238329E-3,1.3382072E-2,2.2211872E-2,3.999039E-2],"split_indices":[1,1,3,9,7,1,4,0,0,0,0,0,0,0,0],"split_type":[0,0,0,0,0,0,0,0,0,0,0,0,0,0,0],"sum_hessian":[7.643E3,2.833E3,4.81E3,5.08E2,2.325E3,3.543E3,1.267E3,4.63E2,4.5E1,1.142E3,1.183E3,1.927E3,1.616E3,8.75E2,3.92E2],"tree_param":{"num_deleted":"0","num_feature":"19","num_nodes":"15","size_leaf_vector":"1"}},{"base_weights":[-2.7130312E-5,-3.574139E-1,2.1049753E-1,-1.2202593E0,-3.2014003E-1,8.7171376E-2,5.043549E-1,-5.690789E-2,-1.2747228E-1,2.308299E-3,-2.3366429E-2,-2.1479966E-3,1.4576345E-2,2.1062737E-2,4.239374E-2],"categories":[],"categories_nodes":[],"categories_segments":[],"categories_sizes":[],"default_left":[0,0,0,0,0,0,0,0,0,0,0,0,0,0,0],"id":32,"left_children":[1,3,5,7,9,11,13,-1,-1,-1,-1,-1,-1,-1,-1],"loss_changes":[5.752001E2,9.075522E1,1.743081E2,9.866333E0,1.4656537E2,9.016296E1,4.0236023E1,0E0,0E0,0E0,0E0,0E0,0E0,0E0,0E0],"parents":[2147483647,0,0,1,1,2,2,3,3,4,4,5,5,6,6],"right_children":[2,4,6,8,10,12,14,-1,-1,-1,-1,-1,-1,-1,-1],"split_conditions":[5.4E6,7.04E5,3.7E7,1E0,1E0,1E0,1.7934296E8,-5.690789E-2,-1.2747228E-1,2.308299E-3,-2.3366429E-2,-2.1479966E-3,1.4576345E-2,2.1062737E-2,4.239374E-2],"split_indices":[1,3,1,16,5,8,3,0,0,0,0,0,0,0,0],"split_type":[0,0,0,0,0,0,0,0,0,0,0,0,0,0,0],"sum_hessian":[7.643E3,2.833E3,4.81E3,1.16E2,2.717E3,3.389E3,1.421E3,1.11E2,5E0,7.79E2,1.938E3,2.071E3,1.318E3,1.146E3,2.75E2],"tree_param":{"num_deleted":"0","num_feature":"19","num_nodes":"15","size_leaf_vector":"1"}},{"base_weights":[-4.286968E-5,-2.3813686E-1,2.8718165E-1,-3.11576E-1,2.5019228E-1,1.8749236E-1,5.5951375E-1,-5.915637E-2,-1.3828747E-2,2.6649589E-2,-3.0868677E-3,3.641165E-3,1.8131068E-2,2.410854E-2,4.6958577E-2],"categories":[],"categories_nodes":[],"categories_segments":[],"categories_sizes":[],"default_left":[0,0,0,0,0,0,0,0,0,0,0,0,0,0,0],"id":33,"left_children":[1,3,5,7,9,11,13,-1,-1,-1,-1,-1,-1,-1,-1],"loss_changes":[5.228143E2,1.4998314E2,9.3964966E1,1.1052881E2,4.828572E1,5.0941383E1,2.6796814E1,0E0,0E0,0E0,0E0,0E0,0E0,0E0,0E0],"parents":[2147483647,0,0,1,1,2,2,3,3,4,4,5,5,6,6],"right_children":[2,4,6,8,10,12,14,-1,-1,-1,-1,-1,-1,-1,-1],"split_conditions":[1.244056E7,1.54E7,5.1E7,7.04E5,1E0,1E0,1.4E8,-5.915637E-2,-1.3828747E-2,2.6649589E-2,-3.0868677E-3,3.641165E-3,1.8131068E-2,2.410854E-2,4.6958577E-2],"split_indices":[1,3,1,3,7,8,1,0,0,0,0,0,0,0,0],"split_type":[0,0,0,0,0,0,0,0,0,0,0,0,0,0,0],"sum_hessian":[7.643E3,4.179E3,3.464E3,3.633E3,5.46E2,2.537E3,9.27E2,1.39E2,3.494E3,2.86E2,2.6E2,1.534E3,1.003E3,7.72E2,1.55E2],"tree_param":{"num_deleted":"0","num_feature":"19","num_nodes":"15","size_leaf_vector":"1"}},{"base_weights":[-3.5330613E-5,-3.2580158E-1,1.9186275E-1,-8.274438E-1,-2.6741174E-1,8.5652545E-2,4.885639E-1,-5.3704824E-2,-2.9575204E-2,-4.7067986E-3,-2.1735681E-2,1.1001481E-2,-3.246496E-3,1.6240293E-2,3.173509E-2],"categories":[],"categories_nodes":[],"categories_segments":[],"categories_sizes":[],"default_left":[0,0,0,0,0,0,0,0,0,0,0,0,0,0,0],"id":34,"left_children":[1,3,5,7,9,11,13,-1,-1,-1,-1,-1,-1,-1,-1],"loss_changes":[4.7791895E2,8.278888E1,1.5156569E2,1.6532242E1,7.359204E1,7.172652E1,3.0138702E1,0E0,0E0,0E0,0E0,0E0,0E0,0E0,0E0],"parents":[2147483647,0,0,1,1,2,2,3,3,4,4,5,5,6,6],"right_children":[2,4,6,8,10,12,14,-1,-1,-1,-1,-1,-1,-1,-1],"split_conditions":[5.4E6,1.25E5,6.623028E7,6E0,1E0,1E0,1.1E2,-5.3704824E-2,-2.9575204E-2,-4.7067986E-3,-2.1735681E-2,1.1001481E-2,-3.246496E-3,1.6240293E-2,3.173509E-2],"split_indices":[1,1,3,2,7,7,0,0,0,0,0,0,0,0,0],"split_type":[0,0,0,0,0,0,0,0,0,0,0,0,0,0,0],"sum_hessian":[7.643E3,2.833E3,4.81E3,2.94E2,2.539E3,3.543E3,1.267E3,1.42E2,1.52E2,1.248E3,1.291E3,1.872E3,1.671E3,5.99E2,6.68E2],"tree_param":{"num_deleted":"0","num_feature":"19","num_nodes":"15","size_leaf_vector":"1"}},{"base_weights":[-4.06785E-5,-1.8856184E-1,3.036664E-1,-2.659793E-1,2.40176E-1,2.1492262E-1,5.995551E-1,-2.2494001E-2,-4.9362844E-3,5.9736916E-3,3.127238E-2,8.763968E-3,2.8494203E-2,2.4496365E-2,4.3153428E-2],"categories":[],"categories_nodes":[],"categories_segments":[],"categories_sizes":[],"default_left":[0,0,0,0,0,0,0,0,0,0,0,0,0,0,0],"id":35,"left_children":[1,3,5,7,9,11,13,-1,-1,-1,-1,-1,-1,-1,-1],"loss_changes":[4.3771613E2,1.566296E2,7.67554E1,1.2286481E2,3.3500526E1,3.1618027E1,1.9076813E1,0E0,0E0,0E0,0E0,0E0,0E0,0E0,0E0],"parents":[2147483647,0,0,1,1,2,2,3,3,4,4,5,5,6,6],"right_children":[2,4,6,8,10,12,14,-1,-1,-1,-1,-1,-1,-1,-1],"split_conditions":[1.64E7,1.7416666E7,1.2503E8,1E2,1.19E2,8.4E7,1.24E2,-2.2494001E-2,-4.9362844E-3,5.9736916E-3,3.127238E-2,8.763968E-3,2.8494203E-2,2.4496365E-2,4.3153428E-2],"split_indices":[1,3,4,0,0,1,0,0,0,0,0,0,0,0,0],"split_type":[0,0,0,0,0,0,0,0,0,0,0,0,0,0,0],"sum_hessian":[7.643E3,4.716E3,2.927E3,3.995E3,7.21E2,2.253E3,6.74E2,1.902E3,2.093E3,5.5E2,1.71E2,2.028E3,2.25E2,4.78E2,1.96E2],"tree_param":{"num_deleted":"0","num_feature":"19","num_nodes":"15","size_leaf_vector":"1"}},{"base_weights":[-2.3683786E-5,-2.9731727E-1,1.7510207E-1,-1.2997249E-1,-4.599134E-1,7.807467E-2,4.4615096E-1,-5.1059086E-2,-3.898281E-3,-3.737071E-2,-6.9379085E-3,1.0302223E-2,-3.2662877E-3,1.7446889E-2,3.362023E-2],"categories":[],"categories_nodes":[],"categories_segments":[],"categories_sizes":[],"default_left":[0,0,0,0,0,0,0,0,0,0,0,0,0,0,0],"id":36,"left_children":[1,3,5,7,9,11,13,-1,-1,-1,-1,-1,-1,-1,-1],"loss_changes":[3.9802747E2,7.705226E1,1.2649048E2,6.471628E1,1.3257794E2,6.504913E1,2.7654816E1,0E0,0E0,0E0,0E0,0E0,0E0,0E0,0E0],"parents":[2147483647,0,0,1,1,2,2,3,3,4,4,5,5,6,6],"right_children":[2,4,6,8,10,12,14,-1,-1,-1,-1,-1,-1,-1,-1],"split_conditions":[5.4E6,1E0,6.623028E7,6.1E1,1.06E2,1E0,1E0,-5.1059086E-2,-3.898281E-3,-3.737071E-2,-6.9379085E-3,1.0302223E-2,-3.2662877E-3,1.7446889E-2,3.362023E-2],"split_indices":[1,7,3,0,0,7,12,0,0,0,0,0,0,0,0],"split_type":[0,0,0,0,0,0,0,0,0,0,0,0,0,0,0],"sum_hessian":[7.643E3,2.833E3,4.81E3,1.397E3,1.436E3,3.543E3,1.267E3,7.6E1,1.321E3,7.57E2,6.79E2,1.872E3,1.671E3,8.88E2,3.79E2],"tree_param":{"num_deleted":"0","num_feature":"19","num_nodes":"15","size_leaf_vector":"1"}},{"base_weights":[-2.7848688E-5,-1.7197542E-1,2.7697924E-1,-2.4685884E-1,2.1100633E-1,1.9352727E-1,5.5523664E-1,-2.0866128E-2,-4.5691016E-3,4.3819584E-3,3.023843E-2,7.3221633E-3,2.2726363E-2,2.261523E-2,4.0134724E-2],"categories":[],"categories_nodes":[],"categories_segments":[],"categories_sizes":[],"default_left":[0,0,0,0,0,0,0,0,0,0,0,0,0,0,0],"id":37,"left_children":[1,3,5,7,9,11,13,-1,-1,-1,-1,-1,-1,-1,-1],"loss_changes":[3.6413666E2,1.3533084E2,6.7884E1,1.04543304E2,3.74487E1,2.7632668E1,1.6830093E1,0E0,0E0,0E0,0E0,0E0,0E0,0E0,0E0],"parents":[2147483647,0,0,1,1,2,2,3,3,4,4,5,5,6,6],"right_children":[2,4,6,8,10,12,14,-1,-1,-1,-1,-1,-1,-1,-1],"split_conditions":[1.64E7,1.54E7,1.2503E8,1E2,1.19E2,1E0,1.24E2,-2.0866128E-2,-4.5691016E-3,4.3819584E-3,3.023843E-2,7.3221633E-3,2.2726363E-2,2.261523E-2,4.0134724E-2],"split_indices":[1,3,4,0,0,15,0,0,0,0,0,0,0,0,0],"split_type":[0,0,0,0,0,0,0,0,0,0,0,0,0,0,0],"sum_hessian":[7.643E3,4.716E3,2.927E3,3.945E3,7.71E2,2.253E3,6.74E2,1.881E3,2.064E3,5.88E2,1.83E2,1.91E3,3.43E2,4.78E2,1.96E2],"tree_param":{"num_deleted":"0","num_feature":"19","num_nodes":"15","size_leaf_vector":"1"}},{"base_weights":[-1.3031802E-5,-2.7124462E-1,1.5976048E-1,-1.1059806E-1,-4.273425E-1,6.330242E-2,3.8960087E-1,-7.933978E-3,4.019218E-2,-3.4724217E-2,-6.4464747E-3,-2.7391268E-3,1.2437628E-2,1.7413346E-2,4.4716455E-2],"categories":[],"categories_nodes":[],"categories_segments":[],"categories_sizes":[],"default_left":[0,0,0,0,0,0,0,0,0,0,0,0,0,0,0],"id":38,"left_children":[1,3,5,7,9,11,13,-1,-1,-1,-1,-1,-1,-1,-1],"loss_changes":[3.3130084E2,7.1019775E1,1.0663502E2,6.1594433E1,1.14466125E2,7.425079E1,2.9354904E1,0E0,0E0,0E0,0E0,0E0,0E0,0E0,0E0],"parents":[2147483647,0,0,1,1,2,2,3,3,4,4,5,5,6,6],"right_children":[2,4,6,8,10,12,14,-1,-1,-1,-1,-1,-1,-1,-1],"split_conditions":[5.4E6,1E0,3.7E7,2.9115762E7,1.06E2,1E0,3.205622E8,-7.933978E-3,4.019218E-2,-3.4724217E-2,-6.4464747E-3,-2.7391268E-3,1.2437628E-2,1.7413346E-2,4.4716455E-2],"split_indices":[1,7,1,3,0,8,3,0,0,0,0,0,0,0,0],"split_type":[0,0,0,0,0,0,0,0,0,0,0,0,0,0,0],"sum_hessian":[7.643E3,2.833E3,4.81E3,1.397E3,1.436E3,3.389E3,1.421E3,1.328E3,6.9E1,7.57E2,6.79E2,2.071E3,1.318E3,1.315E3,1.06E2],"tree_param":{"num_deleted":"0","num_feature":"19","num_nodes":"15","size_leaf_vector":"1"}},{"base_weights":[-4.3809882E-6,-3.3474517E-1,1.1835209E-1,-1.0140792E0,-2.934613E-1,4.221686E-2,4.1610345E-1,-4.2391364E-2,-7.720846E-2,-5.769962E-2,-1.29562495E-2,8.147446E-3,-4.5592077E-3,1.5864158E-2,3.1916007E-2],"categories":[],"categories_nodes":[],"categories_segments":[],"categories_sizes":[],"default_left":[0,0,0,0,0,0,0,0,0,0,0,0,0,0,0],"id":39,"left_children":[1,3,5,7,9,11,13,-1,-1,-1,-1,-1,-1,-1,-1],"loss_changes":[3.0288528E2,5.5709366E1,1.2801904E2,8.737457E0,5.5368378E1,7.247476E1,2.5050903E1,0E0,0E0,0E0,0E0,0E0,0E0,0E0,0E0],"parents":[2147483647,0,0,1,1,2,2,3,3,4,4,5,5,6,6],"right_children":[2,4,6,8,10,12,14,-1,-1,-1,-1,-1,-1,-1,-1],"split_conditions":[3E6,5.5E4,7.6565304E7,1.04E2,5E5,1E0,1E0,-4.2391364E-2,-7.720846E-2,-5.769962E-2,-1.29562495E-2,8.147446E-3,-4.5592077E-3,1.5864158E-2,3.1916007E-2],"split_indices":[1,1,3,0,3,7,12,0,0,0,0,0,0,0,0],"split_type":[0,0,0,0,0,0,0,0,0,0,0,0,0,0,0],"sum_hessian":[7.643E3,1.996E3,5.647E3,1.13E2,1.883E3,4.498E3,1.149E3,8.8E1,2.5E1,7.1E1,1.812E3,2.361E3,2.137E3,7.97E2,3.52E2],"tree_param":{"num_deleted":"0","num_feature":"19","num_nodes":"15","size_leaf_vector":"1"}},{"base_weights":[-2.2358821E-5,-1.5079865E-1,2.4287786E-1,-2.6846582E-1,6.1091714E-2,1.6577125E-1,4.99997E-1,-3.2531698E-3,-2.7577085E-2,-2.5628865E-2,6.7604478E-3,6.12063E-3,2.0307837E-2,1.9914163E-2,3.5714734E-2],"categories":[],"categories_nodes":[],"categories_segments":[],"categories_sizes":[],"default_left":[0,0,0,0,0,0,0,0,0,0,0,0,0,0,0],"id":40,"left_children":[1,3,5,7,9,11,13,-1,-1,-1,-1,-1,-1,-1,-1],"loss_changes":[2.7998737E2,1.17623184E2,5.7966446E1,1.7459914E2,7.171342E1,2.3443245E1,1.4428482E1,0E0,0E0,0E0,0E0,0E0,0E0,0E0,0E0],"parents":[2147483647,0,0,1,1,2,2,3,3,4,4,5,5,6,6],"right_children":[2,4,6,8,10,12,14,-1,-1,-1,-1,-1,-1,-1,-1],"split_conditions":[1.64E7,1.09E2,1.2503E8,1E0,6.41E5,1E0,1.22E2,-3.2531698E-3,-2.7577085E-2,-2.5628865E-2,6.7604478E-3,6.12063E-3,2.0307837E-2,1.9914163E-2,3.5714734E-2],"split_indices":[1,0,4,7,1,15,0,0,0,0,0,0,0,0,0],"split_type":[0,0,0,0,0,0,0,0,0,0,0,0,0,0,0],"sum_hessian":[7.643E3,4.716E3,2.927E3,3.032E3,1.684E3,2.253E3,6.74E2,1.765E3,1.267E3,1.92E2,1.492E3,1.91E3,3.43E2,4.59E2,2.15E2],"tree_param":{"num_deleted":"0","num_feature":"19","num_nodes":"15","size_leaf_vector":"1"}},{"base_weights":[-1.6981367E-5,-3.07116E-1,1.0856601E-1,-9.6894485E-1,-2.691347E-1,3.8408767E-2,3.8293892E-1,-2.7768994E-2,-5.641162E-2,-6.1569154E-2,-1.2035108E-2,-2.033692E-3,1.1383855E-2,1.45163415E-2,2.956076E-2],"categories":[],"categories_nodes":[],"categories_segments":[],"categories_sizes":[],"default_left":[0,0,0,0,0,0,0,0,0,0,0,0,0,0,0],"id":41,"left_children":[1,3,5,7,9,11,13,-1,-1,-1,-1,-1,-1,-1,-1],"loss_changes":[2.549281E2,4.9938034E1,1.0870504E2,6.4879837E0,5.14124E1,6.734954E1,2.2010574E1,0E0,0E0,0E0,0E0,0E0,0E0,0E0,0E0],"parents":[2147483647,0,0,1,1,2,2,3,3,4,4,5,5,6,6],"right_children":[2,4,6,8,10,12,14,-1,-1,-1,-1,-1,-1,-1,-1],"split_conditions":[3E6,6.1E1,7.6565304E7,1E0,5E5,1.16E2,1E0,-2.7768994E-2,-5.641162E-2,-6.1569154E-2,-1.2035108E-2,-2.033692E-3,1.1383855E-2,1.45163415E-2,2.956076E-2],"split_indices":[1,0,3,5,3,0,12,0,0,0,0,0,0,0,0],"split_type":[0,0,0,0,0,0,0,0,0,0,0,0,0,0,0],"sum_hessian":[7.643E3,1.996E3,5.647E3,1.07E2,1.889E3,4.498E3,1.149E3,3.1E1,7.6E1,5.3E1,1.836E3,3.173E3,1.325E3,7.97E2,3.52E2],"tree_param":{"num_deleted":"0","num_feature":"19","num_nodes":"15","size_leaf_vector":"1"}},{"base_weights":[-2.9845365E-5,-1.5010723E-1,2.0554735E-1,-2.55012E-1,5.44137E-2,1.366023E-1,4.5324066E-1,-2.9082065E-3,-2.6109759E-2,-2.306218E-2,6.3682436E-3,3.6642663E-3,1.50787E-2,2.8507734E-2,1.3146437E-2],"categories":[],"categories_nodes":[],"categories_segments":[],"categories_sizes":[],"default_left":[0,0,0,0,0,0,0,0,0,0,0,0,0,0,0],"id":42,"left_children":[1,3,5,7,9,11,13,-1,-1,-1,-1,-1,-1,-1,-1],"loss_changes":[2.358673E2,9.482448E1,5.502922E1,1.5359795E2,5.6447838E1,2.6352802E1,1.5469666E1,0E0,0E0,0E0,0E0,0E0,0E0,0E0,0E0],"parents":[2147483647,0,0,1,1,2,2,3,3,4,4,5,5,6,6],"right_children":[2,4,6,8,10,12,14,-1,-1,-1,-1,-1,-1,-1,-1],"split_conditions":[1.5E7,1.1E2,1.2503E8,1E0,6.41E5,1.19E2,1E0,-2.9082065E-3,-2.6109759E-2,-2.306218E-2,6.3682436E-3,3.6642663E-3,1.50787E-2,2.8507734E-2,1.3146437E-2],"split_indices":[1,0,4,7,1,0,7,0,0,0,0,0,0,0,0],"split_type":[0,0,0,0,0,0,0,0,0,0,0,0,0,0,0],"sum_hessian":[7.643E3,4.418E3,3.225E3,2.92E3,1.498E3,2.524E3,7.01E2,1.682E3,1.238E3,1.85E2,1.313E3,1.825E3,6.99E2,4.33E2,2.68E2],"tree_param":{"num_deleted":"0","num_feature":"19","num_nodes":"15","size_leaf_vector":"1"}},{"base_weights":[-2.6602323E-5,-2.0020397E-1,1.4108862E-1,8.684741E-3,-2.9872024E-1,8.553541E-2,4.1189858E-1,-4.3748718E-2,6.469944E-3,-6.9516124E-3,-2.2928817E-2,-1.938401E-2,6.2443893E-3,2.7309407E-2,1.0587146E-2],"categories":[],"categories_nodes":[],"categories_segments":[],"categories_sizes":[],"default_left":[0,0,0,0,0,0,0,0,0,0,0,0,0,0,0],"id":43,"left_children":[1,3,5,7,9,11,13,-1,-1,-1,-1,-1,-1,-1,-1],"loss_changes":[2.1595653E2,6.505261E1,6.7423706E1,1.0827676E2,5.4768448E1,6.936009E1,2.0392899E1,0E0,0E0,0E0,0E0,0E0,0E0,0E0,0E0],"parents":[2147483647,0,0,1,1,2,2,3,3,4,4,5,5,6,6],"right_children":[2,4,6,8,10,12,14,-1,-1,-1,-1,-1,-1,-1,-1],"split_conditions":[6.9E6,1E0,1.2503E8,7.04E5,1E0,8.159508E6,1E0,-4.3748718E-2,6.469944E-3,-6.9516124E-3,-2.2928817E-2,-1.938401E-2,6.2443893E-3,2.7309407E-2,1.0587146E-2],"split_indices":[1,5,4,3,7,3,7,0,0,0,0,0,0,0,0],"split_type":[0,0,0,0,0,0,0,0,0,0,0,0,0,0,0],"sum_hessian":[7.643E3,3.16E3,4.483E3,1.013E3,2.147E3,3.721E3,7.62E2,1.21E2,8.92E2,1.075E3,1.072E3,2.85E2,3.436E3,4.55E2,3.07E2],"tree_param":{"num_deleted":"0","num_feature":"19","num_nodes":"15","size_leaf_vector":"1"}},{"base_weights":[-3.0906584E-5,-1.0228886E-1,2.559889E-1,-2.8777912E-1,2.6324013E-4,3.6956525E-1,1.0153808E-1,-4.4824038E-2,-1.2487216E-2,-2.3984986E-3,2.023892E-2,7.969011E-3,2.7355446E-2,-7.5359293E-3,1.0306849E-2],"categories":[],"categories_nodes":[],"categories_segments":[],"categories_sizes":[],"default_left":[0,0,0,0,0,0,0,0,0,0,0,0,0,0,0],"id":44,"left_children":[1,3,5,7,9,11,13,-1,-1,-1,-1,-1,-1,-1,-1],"loss_changes":[2.0014658E2,1.03919525E2,3.8239044E1,4.4806458E1,6.8678856E1,4.6820267E1,2.4464287E1,0E0,0E0,0E0,0E0,0E0,0E0,0E0,0E0],"parents":[2147483647,0,0,1,1,2,2,3,3,4,4,5,5,6,6],"right_children":[2,4,6,8,10,12,14,-1,-1,-1,-1,-1,-1,-1,-1],"split_conditions":[2.8356188E7,3E6,1E0,5.5E4,1E0,1.03E2,1.5401904E7,-4.4824038E-2,-1.2487216E-2,-2.3984986E-3,2.023892E-2,7.969011E-3,2.7355446E-2,-7.5359293E-3,1.0306849E-2],"split_indices":[3,1,7,1,15,0,4,0,0,0,0,0,0,0,0],"split_type":[0,0,0,0,0,0,0,0,0,0,0,0,0,0,0],"sum_hessian":[7.643E3,5.462E3,2.181E3,1.944E3,3.518E3,1.256E3,9.25E2,1.13E2,1.831E3,3.144E3,3.74E2,5.76E2,6.8E2,2.71E2,6.54E2],"tree_param":{"num_deleted":"0","num_feature":"19","num_nodes":"15","size_leaf_vector":"1"}},{"base_weights":[-2.9301156E-5,-1.1462475E-1,2.0710945E-1,-1.8031341E-1,1.889787E-1,1.1117275E-1,3.715162E-1,-1.6077906E-2,-2.614184E-3,3.9965543E-3,2.694025E-2,1.0575942E-2,-1.5664134E-3,1.4560885E-2,3.120989E-2],"categories":[],"categories_nodes":[],"categories_segments":[],"categories_sizes":[],"default_left":[0,0,0,0,0,0,0,0,0,0,0,0,0,0,0],"id":45,"left_children":[1,3,5,7,9,11,13,-1,-1,-1,-1,-1,-1,-1,-1],"loss_changes":[1.814706E2,9.819502E1,4.2907608E1,7.316719E1,3.3374336E1,2.4615927E1,2.0169052E1,0E0,0E0,0E0,0E0,0E0,0E0,0E0,0E0],"parents":[2147483647,0,0,1,1,2,2,3,3,4,4,5,5,6,6],"right_children":[2,4,6,8,10,12,14,-1,-1,-1,-1,-1,-1,-1,-1],"split_conditions":[1.9E7,1.54E7,8.989321E7,1E2,1.19E2,1E0,1.25E2,-1.6077906E-2,-2.614184E-3,3.9965543E-3,2.694025E-2,1.0575942E-2,-1.5664134E-3,1.4560885E-2,3.120989E-2],"split_indices":[1,3,4,0,0,7,0,0,0,0,0,0,0,0,0],"split_type":[0,0,0,0,0,0,0,0,0,0,0,0,0,0,0],"sum_hessian":[7.643E3,4.921E3,2.722E3,4.046E3,8.75E2,1.72E3,1.002E3,1.923E3,2.123E3,6.68E2,2.07E2,1.009E3,7.11E2,7.62E2,2.4E2],"tree_param":{"num_deleted":"0","num_feature":"19","num_nodes":"15","size_leaf_vector":"1"}},{"base_weights":[-1.9089704E-5,-2.4730131E-1,8.741409E-2,-8.7697005E-1,-2.1329628E-1,1.9734408E-1,-4.545573E-2,-2.201755E-2,-5.141408E-2,-5.240797E-2,-9.342483E-3,5.6888866E-3,2.0080736E-2,-2.4352362E-2,3.0634098E-3],"categories":[],"categories_nodes":[],"categories_segments":[],"categories_sizes":[],"default_left":[0,0,0,0,0,0,0,0,0,0,0,0,0,0,0],"id":46,"left_children":[1,3,5,7,9,11,13,-1,-1,-1,-1,-1,-1,-1,-1],"loss_changes":[1.6529002E2,4.2572502E1,8.25058E1,6.2858734E0,4.1666527E1,5.271814E1,1.2058423E2,0E0,0E0,0E0,0E0,0E0,0E0,0E0,0E0],"parents":[2147483647,0,0,1,1,2,2,3,3,4,4,5,5,6,6],"right_children":[2,4,6,8,10,12,14,-1,-1,-1,-1,-1,-1,-1,-1],"split_conditions":[3E6,5.9E1,1E0,1E0,5E5,1.1E2,1E2,-2.201755E-2,-5.141408E-2,-5.240797E-2,-9.342483E-3,5.6888866E-3,2.0080736E-2,-2.4352362E-2,3.0634098E-3],"split_indices":[1,0,7,5,3,0,0,0,0,0,0,0,0,0,0],"split_type":[0,0,0,0,0,0,0,0,0,0,0,0,0,0,0],"sum_hessian":[7.643E3,1.996E3,5.647E3,1.01E2,1.895E3,3.09E3,2.557E3,2.7E1,7.4E1,5.7E1,1.838E3,2.194E3,8.96E2,4.97E2,2.06E3],"tree_param":{"num_deleted":"0","num_feature":"19","num_nodes":"15","size_leaf_vector":"1"}},{"base_weights":[-3.5341967E-5,-9.033742E-2,2.2605094E-1,-1.5225072E-1,1.562129E-1,3.2788277E-1,8.757509E-2,-1.21928165E-2,8.543005E-4,4.73461E-3,2.1499166E-2,6.8261805E-3,2.4476837E-2,-7.364174E-3,9.248522E-3],"categories":[],"categories_nodes":[],"categories_segments":[],"categories_sizes":[],"default_left":[0,0,0,0,0,0,0,0,0,0,0,0,0,0,0],"id":47,"left_children":[1,3,5,7,9,11,13,-1,-1,-1,-1,-1,-1,-1,-1],"loss_changes":[1.560808E2,8.341507E1,3.0740211E1,6.774593E1,1.843556E1,3.8817184E1,2.120869E1,0E0,0E0,0E0,0E0,0E0,0E0,0E0,0E0],"parents":[2147483647,0,0,1,1,2,2,3,3,4,4,5,5,6,6],"right_children":[2,4,6,8,10,12,14,-1,-1,-1,-1,-1,-1,-1,-1],"split_conditions":[2.8356188E7,1.9E7,1E0,1.09E2,1E0,1.03E2,1.5401904E7,-1.21928165E-2,8.543005E-4,4.73461E-3,2.1499166E-2,6.8261805E-3,2.4476837E-2,-7.364174E-3,9.248522E-3],"split_indices":[3,1,7,0,15,0,4,0,0,0,0,0,0,0,0],"split_type":[0,0,0,0,0,0,0,0,0,0,0,0,0,0,0],"sum_hessian":[7.643E3,5.462E3,2.181E3,4.366E3,1.096E3,1.256E3,9.25E2,2.833E3,1.533E3,8.96E2,2E2,5.76E2,6.8E2,2.71E2,6.54E2],"tree_param":{"num_deleted":"0","num_feature":"19","num_nodes":"15","size_leaf_vector":"1"}},{"base_weights":[-2.7290382E-5,-8.581777E-2,2.1476345E-1,-3.3727673E-1,-2.8221939E-2,3.1151333E-1,8.319825E-2,-1.9392611E-2,1.9319102E-2,-3.4543087E-3,1.8080225E-2,8.29723E-3,2.5319014E-2,-6.9973143E-3,8.786792E-3],"categories":[],"categories_nodes":[],"categories_segments":[],"categories_sizes":[],"default_left":[0,0,0,0,0,0,0,0,0,0,0,0,0,0,0],"id":48,"left_children":[1,3,5,7,9,11,13,-1,-1,-1,-1,-1,-1,-1,-1],"loss_changes":[1.4087442E2,7.911104E1,2.774858E1,3.740805E1,7.084959E1,3.55727E1,1.9145802E1,0E0,0E0,0E0,0E0,0E0,0E0,0E0,0E0],"parents":[2147483647,0,0,1,1,2,2,3,3,4,4,5,5,6,6],"right_children":[2,4,6,8,10,12,14,-1,-1,-1,-1,-1,-1,-1,-1],"split_conditions":[2.8356188E7,1E6,1E0,1E0,1E0,1.08E2,1.5401904E7,-1.9392611E-2,1.9319102E-2,-3.4543087E-3,1.8080225E-2,8.29723E-3,2.5319014E-2,-6.9973143E-3,8.786792E-3],"split_indices":[3,1,7,16,15,0,4,0,0,0,0,0,0,0,0],"split_type":[0,0,0,0,0,0,0,0,0,0,0,0,0,0,0],"sum_hessian":[7.643E3,5.462E3,2.181E3,1.017E3,4.445E3,1.256E3,9.25E2,9.51E2,6.6E1,4.024E3,4.21E2,7.2E2,5.36E2,2.71E2,6.54E2],"tree_param":{"num_deleted":"0","num_feature":"19","num_nodes":"15","size_leaf_vector":"1"}},{"base_weights":[-1.9300676E-5,-1.8526115E-1,9.041997E-2,-4.301338E-2,-3.232289E-1,2.5787322E-2,2.9813525E-1,-3.993567E-2,2.8997276E-4,-2.5062917E-2,-3.513325E-3,-5.8188625E-3,1.0111936E-2,1.52532635E-2,-1.3062589E-1],"categories":[],"categories_nodes":[],"categories_segments":[],"categories_sizes":[],"default_left":[0,0,0,0,0,0,0,0,0,0,0,0,0,0,0],"id":49,"left_children":[1,3,5,7,9,11,13,-1,-1,-1,-1,-1,-1,-1,-1],"loss_changes":[1.2807773E2,4.9207123E1,6.8957504E1,4.5598026E1,5.729402E1,9.8332184E1,2.5385262E1,0E0,0E0,0E0,0E0,0E0,0E0,0E0,0E0],"parents":[2147483647,0,0,1,1,2,2,3,3,4,4,5,5,6,6],"right_children":[2,4,6,8,10,12,14,-1,-1,-1,-1,-1,-1,-1,-1],"split_conditions":[4.3E6,1E0,1.22E2,6.1E1,1.09E2,1E0,2.79E2,-3.993567E-2,2.8997276E-4,-2.5062917E-2,-3.513325E-3,-5.8188625E-3,1.0111936E-2,1.52532635E-2,-1.3062589E-1],"split_indices":[1,7,0,0,0,8,0,0,0,0,0,0,0,0,0],"split_type":[0,0,0,0,0,0,0,0,0,0,0,0,0,0,0],"sum_hessian":[7.643E3,2.507E3,5.136E3,1.235E3,1.272E3,3.918E3,1.218E3,7.4E1,1.161E3,7.46E2,5.26E2,2.17E3,1.748E3,1.216E3,2E0],"tree_param":{"num_deleted":"0","num_feature":"19","num_nodes":"15","size_leaf_vector":"1"}},{"base_weights":[-4.179786E-5,-7.945296E-2,1.9877729E-1,-1.3558328E-1,1.4406624E-1,2.9080224E-1,7.364322E-2,-3.9242126E-2,-5.6788134E-3,3.2372903E-3,1.6697008E-2,5.8930544E-3,2.184527E-2,-6.8226345E-3,8.0388365E-3],"categories":[],"categories_nodes":[],"categories_segments":[],"categories_sizes":[],"default_left":[0,0,0,0,0,0,0,0,0,0,0,0,0,0,0],"id":50,"left_children":[1,3,5,7,9,11,13,-1,-1,-1,-1,-1,-1,-1,-1],"loss_changes":[1.2070274E2,6.8559456E1,2.51053E1,6.2307686E1,1.6500168E1,3.1709435E1,1.697366E1,0E0,0E0,0E0,0E0,0E0,0E0,0E0,0E0],"parents":[2147483647,0,0,1,1,2,2,3,3,4,4,5,5,6,6],"right_children":[2,4,6,8,10,12,14,-1,-1,-1,-1,-1,-1,-1,-1],"split_conditions":[2.8356188E7,1.9E7,1E0,9.66878E5,8.316477E7,1.03E2,1.5401904E7,-3.9242126E-2,-5.6788134E-3,3.2372903E-3,1.6697008E-2,5.8930544E-3,2.184527E-2,-6.8226345E-3,8.0388365E-3],"split_indices":[3,1,7,4,4,0,4,0,0,0,0,0,0,0,0],"split_type":[0,0,0,0,0,0,0,0,0,0,0,0,0,0,0],"sum_hessian":[7.643E3,5.462E3,2.181E3,4.366E3,1.096E3,1.256E3,9.25E2,1.42E2,4.224E3,7.74E2,3.22E2,5.76E2,6.8E2,2.71E2,6.54E2],"tree_param":{"num_deleted":"0","num_feature":"19","num_nodes":"15","size_leaf_vector":"1"}},{"base_weights":[-3.9132836E-5,-8.905916E-2,1.6114604E-1,-1.4242798E-1,1.5675731E-1,7.703827E-2,3.378092E-1,-3.7879676E-2,-6.017694E-3,4.526888E-3,2.0492947E-2,9.231702E-3,-6.0680853E-3,1.14281215E-1,1.631332E-2],"categories":[],"categories_nodes":[],"categories_segments":[],"categories_sizes":[],"default_left":[0,0,0,0,0,0,0,0,0,0,0,0,0,0,0],"id":51,"left_children":[1,3,5,7,9,11,13,-1,-1,-1,-1,-1,-1,-1,-1],"loss_changes":[1.0969588E2,6.463309E1,4.0389763E1,5.486396E1,1.4695175E1,3.9386272E1,1.8972115E1,0E0,0E0,0E0,0E0,0E0,0E0,0E0,0E0],"parents":[2147483647,0,0,1,1,2,2,3,3,4,4,5,5,6,6],"right_children":[2,4,6,8,10,12,14,-1,-1,-1,-1,-1,-1,-1,-1],"split_conditions":[1.54E7,1.9E7,1.19E2,9.66878E5,1E0,1E0,1.915E6,-3.7879676E-2,-6.017694E-3,4.526888E-3,2.0492947E-2,9.231702E-3,-6.0680853E-3,1.14281215E-1,1.631332E-2],"split_indices":[3,1,0,4,15,7,1,0,0,0,0,0,0,0,0],"split_type":[0,0,0,0,0,0,0,0,0,0,0,0,0,0,0],"sum_hessian":[7.643E3,4.924E3,2.719E3,4.046E3,8.78E2,1.843E3,8.76E2,1.39E2,3.907E3,6.97E2,1.81E2,1.195E3,6.48E2,4E0,8.72E2],"tree_param":{"num_deleted":"0","num_feature":"19","num_nodes":"15","size_leaf_vector":"1"}},{"base_weights":[-2.2132504E-5,-1.9367824E-1,6.845012E-2,-7.6261723E-1,-1.591492E-1,1.0105401E-2,2.5712255E-1,-2.9800797E-2,-6.517875E-2,-1.0576893E-2,1.0648809E-2,-5.8431574E-3,8.487024E-3,1.3158949E-2,-1.258818E-1],"categories":[],"categories_nodes":[],"categories_segments":[],"categories_sizes":[],"default_left":[0,0,0,0,0,0,0,0,0,0,0,0,0,0,0],"id":52,"left_children":[1,3,5,7,9,11,13,-1,-1,-1,-1,-1,-1,-1,-1],"loss_changes":[1.0137323E2,3.9109543E1,6.217081E1,9.497215E0,3.677391E1,8.747899E1,2.3080597E1,0E0,0E0,0E0,0E0,0E0,0E0,0E0,0E0],"parents":[2147483647,0,0,1,1,2,2,3,3,4,4,5,5,6,6],"right_children":[2,4,6,8,10,12,14,-1,-1,-1,-1,-1,-1,-1,-1],"split_conditions":[3E6,5.5E4,1.22E2,1.04E2,1E0,1E0,2.79E2,-2.9800797E-2,-6.517875E-2,-1.0576893E-2,1.0648809E-2,-5.8431574E-3,8.487024E-3,1.3158949E-2,-1.258818E-1],"split_indices":[1,1,0,0,14,8,0,0,0,0,0,0,0,0,0],"split_type":[0,0,0,0,0,0,0,0,0,0,0,0,0,0,0],"sum_hessian":[7.643E3,1.996E3,5.647E3,1.13E2,1.883E3,4.314E3,1.333E3,8.8E1,2.5E1,1.651E3,2.32E2,2.403E3,1.911E3,1.331E3,2E0],"tree_param":{"num_deleted":"0","num_feature":"19","num_nodes":"15","size_leaf_vector":"1"}},{"base_weights":[-4.805413E-5,-7.048676E-2,1.76307E-1,3.4039192E-2,-1.8024199E-1,2.6136512E-1,6.0654316E-2,-3.7777152E-2,2.5364186E-3,-2.4130404E-2,-1.82027E-3,5.006347E-3,1.9879788E-2,-5.3281453E-2,3.767948E-3],"categories":[],"categories_nodes":[],"categories_segments":[],"categories_sizes":[],"default_left":[0,0,0,0,0,0,0,0,0,0,0,0,0,0,0],"id":53,"left_children":[1,3,5,7,9,11,13,-1,-1,-1,-1,-1,-1,-1,-1],"loss_changes":[9.496789E1,6.2679146E1,2.1448929E1,3.6922092E1,1.1588676E2,2.757093E1,1.5416338E1,0E0,0E0,0E0,0E0,0E0,0E0,0E0,0E0],"parents":[2147483647,0,0,1,1,2,2,3,3,4,4,5,5,6,6],"right_children":[2,4,6,8,10,12,14,-1,-1,-1,-1,-1,-1,-1,-1],"split_conditions":[2.8356188E7,1E0,1E0,2.5E1,1E2,1.03E2,9.66878E5,-3.7777152E-2,2.5364186E-3,-2.4130404E-2,-1.82027E-3,5.006347E-3,1.9879788E-2,-5.3281453E-2,3.767948E-3],"split_indices":[3,7,7,0,0,0,4,0,0,0,0,0,0,0,0],"split_type":[0,0,0,0,0,0,0,0,0,0,0,0,0,0,0],"sum_hessian":[7.643E3,5.462E3,2.181E3,2.798E3,2.664E3,1.256E3,9.25E2,5.7E1,2.741E3,8.58E2,1.806E3,5.76E2,6.8E2,1.1E1,9.14E2],"tree_param":{"num_deleted":"0","num_feature":"19","num_nodes":"15","size_leaf_vector":"1"}},{"base_weights":[-5.6966197E-5,-2.1421961E-1,5.2785195E-2,-3.9036876E-1,-8.775646E-2,-4.0437642E-2,1.7184712E-1,-2.3210969E-2,4.8472416E-3,-8.449433E-3,1.9172024E-2,3.5854944E-3,-1.3609658E-2,4.570779E-3,1.5639836E-2],"categories":[],"categories_nodes":[],"categories_segments":[],"categories_sizes":[],"default_left":[0,0,0,0,0,0,0,0,0,0,0,0,0,0,0],"id":54,"left_children":[1,3,5,7,9,11,13,-1,-1,-1,-1,-1,-1,-1,-1],"loss_changes":[8.651705E1,3.3669907E1,6.80678E1,2.2789673E1,3.3824547E1,8.94279E1,3.050138E1,0E0,0E0,0E0,0E0,0E0,0E0,0E0,0E0],"parents":[2147483647,0,0,1,1,2,2,3,3,4,4,5,5,6,6],"right_children":[2,4,6,8,10,12,14,-1,-1,-1,-1,-1,-1,-1,-1],"split_conditions":[1.8E6,6E0,1.09E2,1E0,1E0,1E0,4.645796E7,-2.3210969E-2,4.8472416E-3,-8.449433E-3,1.9172024E-2,3.5854944E-3,-1.3609658E-2,4.570779E-3,1.5639836E-2],"split_indices":[1,2,0,9,14,7,4,0,0,0,0,0,0,0,0],"split_type":[0,0,0,0,0,0,0,0,0,0,0,0,0,0,0],"sum_hessian":[7.643E3,1.512E3,6.131E3,6.31E2,8.81E2,3.439E3,2.692E3,5.48E2,8.3E1,7.52E2,1.29E2,2.318E3,1.121E3,1.715E3,9.77E2],"tree_param":{"num_deleted":"0","num_feature":"19","num_nodes":"15","size_leaf_vector":"1"}},{"base_weights":[-5.3898817E-5,9.660378E-2,-1.0923129E-1,5.6173187E-2,4.0193245E-1,-4.134665E-1,2.293727E-3,-4.5713443E-2,3.327991E-3,1.8781668E-2,4.756775E-2,-2.2732725E-2,8.1278E-3,-2.5197485E-2,1.7877476E-3],"categories":[],"categories_nodes":[],"categories_segments":[],"categories_sizes":[],"default_left":[0,0,0,0,0,0,0,0,0,0,0,0,0,0,0],"id":55,"left_children":[1,3,5,7,9,11,13,-1,-1,-1,-1,-1,-1,-1,-1],"loss_changes":[8.0676414E1,5.0034855E1,1.2180908E2,3.6166084E1,6.491623E0,2.292128E1,4.4535088E1,0E0,0E0,0E0,0E0,0E0,0E0,0E0,0E0],"parents":[2147483647,0,0,1,1,2,2,3,3,4,4,5,5,6,6],"right_children":[2,4,6,8,10,12,14,-1,-1,-1,-1,-1,-1,-1,-1],"split_conditions":[1E0,1.2503E8,1E2,3.40147E5,4.9405504E8,1.2E1,6.41E5,-4.5713443E-2,3.327991E-3,1.8781668E-2,4.756775E-2,-2.2732725E-2,8.1278E-3,-2.5197485E-2,1.7877476E-3],"split_indices":[7,4,0,3,4,2,1,0,0,0,0,0,0,0,0],"split_type":[0,0,0,0,0,0,0,0,0,0,0,0,0,0,0],"sum_hessian":[7.643E3,4.054E3,3.589E3,3.581E3,4.73E2,9.62E2,2.627E3,3.7E1,3.544E3,4.53E2,2E1,8.98E2,6.4E1,1.62E2,2.465E3],"tree_param":{"num_deleted":"0","num_feature":"19","num_nodes":"15","size_leaf_vector":"1"}},{"base_weights":[-5.3170214E-5,-6.337722E-2,1.5848915E-1,-6.398444E-1,-4.7650367E-2,2.3429468E-1,5.5415656E-2,-4.034384E-2,2.1597647E-5,-3.6248017E-2,-1.69358E-3,3.70627E-2,9.563169E-3,-7.6447055E-4,1.398512E-2],"categories":[],"categories_nodes":[],"categories_segments":[],"categories_sizes":[],"default_left":[0,0,0,0,0,0,0,0,0,0,0,0,0,0,0],"id":56,"left_children":[1,3,5,7,9,11,13,-1,-1,-1,-1,-1,-1,-1,-1],"loss_changes":[7.67523E1,4.9497147E1,1.7036171E1,1.5507656E1,4.9615005E1,2.7279823E1,1.4688978E1,0E0,0E0,0E0,0E0,0E0,0E0,0E0,0E0],"parents":[2147483647,0,0,1,1,2,2,3,3,4,4,5,5,6,6],"right_children":[2,4,6,8,10,12,14,-1,-1,-1,-1,-1,-1,-1,-1],"split_conditions":[2.8356188E7,5E5,1E0,1.244056E7,5.5E4,7.7E6,1E0,-4.034384E-2,2.1597647E-5,-3.6248017E-2,-1.69358E-3,3.70627E-2,9.563169E-3,-7.6447055E-4,1.398512E-2],"split_indices":[3,3,7,1,1,1,8,0,0,0,0,0,0,0,0],"split_type":[0,0,0,0,0,0,0,0,0,0,0,0,0,0,0],"sum_hessian":[7.643E3,5.462E3,2.181E3,1.44E2,5.318E3,1.256E3,9.25E2,1.14E2,3E1,1.05E2,5.213E3,9.7E1,1.159E3,7.04E2,2.21E2],"tree_param":{"num_deleted":"0","num_feature":"19","num_nodes":"15","size_leaf_vector":"1"}},{"base_weights":[-5.2810028E-5,-8.1891246E-2,1.1870346E-1,3.0009512E-2,-2.7920467E-1,-7.0191264E-1,1.3612452E-1,-1.2266914E-3,1.4315739E-2,-1.9148465E-2,-3.9114864E-3,-4.2631578E-2,2.3926908E-2,-2.893045E-2,7.7646025E-3],"categories":[],"categories_nodes":[],"categories_segments":[],"categories_sizes":[],"default_left":[0,0,0,0,0,0,0,0,0,0,0,0,0,0,0],"id":57,"left_children":[1,3,5,7,9,11,13,-1,-1,-1,-1,-1,-1,-1,-1],"loss_changes":[7.430044E1,9.994029E1,4.468478E1,4.039451E1,3.4129036E1,1.19725685E1,4.1942352E1,0E0,0E0,0E0,0E0,0E0,0E0,0E0,0E0],"parents":[2147483647,0,0,1,1,2,2,3,3,4,4,5,5,6,6],"right_children":[2,4,6,8,10,12,14,-1,-1,-1,-1,-1,-1,-1,-1],"split_conditions":[1.09E2,1E0,2.1E5,1E0,1.09E7,1.66E2,9.66878E5,-1.2266914E-3,1.4315739E-2,-1.9148465E-2,-3.9114864E-3,-4.2631578E-2,2.3926908E-2,-2.893045E-2,7.7646025E-3],"split_indices":[0,7,1,15,1,0,4,0,0,0,0,0,0,0,0],"split_type":[0,0,0,0,0,0,0,0,0,0,0,0,0,0,0],"sum_hessian":[7.643E3,4.525E3,3.118E3,2.888E3,1.637E3,6.4E1,3.054E3,2.382E3,5.06E2,1.079E3,5.58E2,5.7E1,7E0,7.9E1,2.975E3],"tree_param":{"num_deleted":"0","num_feature":"19","num_nodes":"15","size_leaf_vector":"1"}},{"base_weights":[-5.6817233E-5,-7.7798955E-2,1.127553E-1,2.8513242E-2,-2.6525813E-1,-6.6710514E-1,1.2931116E-1,-1.165396E-3,1.3601335E-2,-2.250894E-2,-7.868486E-3,2.0598132E-2,-4.128903E-2,-2.7501998E-2,7.376492E-3],"categories":[],"categories_nodes":[],"categories_segments":[],"categories_sizes":[],"default_left":[0,0,0,0,0,0,0,0,0,0,0,0,0,0,0],"id":58,"left_children":[1,3,5,7,9,11,13,-1,-1,-1,-1,-1,-1,-1,-1],"loss_changes":[6.704861E1,9.020712E1,4.0356503E1,3.6463062E1,3.260856E1,1.1469595E1,3.789251E1,0E0,0E0,0E0,0E0,0E0,0E0,0E0,0E0],"parents":[2147483647,0,0,1,1,2,2,3,3,4,4,5,5,6,6],"right_children":[2,4,6,8,10,12,14,-1,-1,-1,-1,-1,-1,-1,-1],"split_conditions":[1.09E2,1E0,2.1E5,1E0,9.5E1,1E0,9.66878E5,-1.165396E-3,1.3601335E-2,-2.250894E-2,-7.868486E-3,2.0598132E-2,-4.128903E-2,-2.7501998E-2,7.376492E-3],"split_indices":[0,7,1,15,0,5,4,0,0,0,0,0,0,0,0],"split_type":[0,0,0,0,0,0,0,0,0,0,0,0,0,0,0],"sum_hessian":[7.643E3,4.525E3,3.118E3,2.888E3,1.637E3,6.4E1,3.054E3,2.382E3,5.06E2,6.02E2,1.035E3,8E0,5.6E1,7.9E1,2.975E3],"tree_param":{"num_deleted":"0","num_feature":"19","num_nodes":"15","size_leaf_vector":"1"}},{"base_weights":[-6.1525716E-5,-6.784902E-2,1.2267872E-1,-1.12039015E-1,1.3568313E-1,5.2710082E-2,2.6965648E-1,-3.1271353E-2,-4.571625E-3,1.1355839E-2,-3.249279E-4,-3.4742632E-3,9.5847E-3,1.08585075E-1,1.2922694E-2],"categories":[],"categories_nodes":[],"categories_segments":[],"categories_sizes":[],"default_left":[0,0,0,0,0,0,0,0,0,0,0,0,0,0,0],"id":59,"left_children":[1,3,5,7,9,11,13,-1,-1,-1,-1,-1,-1,-1,-1],"loss_changes":[6.3608345E1,4.4311073E1,2.795781E1,4.2756596E1,1.1428644E1,3.1330318E1,1.8125721E1,0E0,0E0,0E0,0E0,0E0,0E0,0E0,0E0],"parents":[2147483647,0,0,1,1,2,2,3,3,4,4,5,5,6,6],"right_children":[2,4,6,8,10,12,14,-1,-1,-1,-1,-1,-1,-1,-1],"split_conditions":[1.54E7,1.9E7,1.19E2,7.04E5,9E0,1E0,1.915E6,-3.1271353E-2,-4.571625E-3,1.1355839E-2,-3.249279E-4,-3.4742632E-3,9.5847E-3,1.08585075E-1,1.2922694E-2],"split_indices":[3,1,0,3,2,8,1,0,0,0,0,0,0,0,0],"split_type":[0,0,0,0,0,0,0,0,0,0,0,0,0,0,0],"sum_hessian":[7.643E3,4.924E3,2.719E3,4.046E3,8.78E2,1.843E3,8.76E2,1.55E2,3.891E3,5.34E2,3.44E2,9.81E2,8.62E2,4E0,8.72E2],"tree_param":{"num_deleted":"0","num_feature":"19","num_nodes":"15","size_leaf_vector":"1"}},{"base_weights":[-4.4746463E-5,8.421616E-2,-9.521966E-2,4.7891416E-2,3.585432E-1,-3.5246694E-1,-9.181485E-4,-3.3980947E-2,2.9924107E-3,3.8005255E-2,1.6289296E-2,-1.9581296E-2,9.727702E-3,-2.215657E-2,1.4156027E-3],"categories":[],"categories_nodes":[],"categories_segments":[],"categories_sizes":[],"default_left":[0,0,0,0,0,0,0,0,0,0,0,0,0,0,0],"id":60,"left_children":[1,3,5,7,9,11,13,-1,-1,-1,-1,-1,-1,-1,-1],"loss_changes":[6.130926E1,4.039033E1,8.708879E1,3.1199392E1,5.987404E0,2.0704384E1,3.398203E1,0E0,0E0,0E0,0E0,0E0,0E0,0E0,0E0],"parents":[2147483647,0,0,1,1,2,2,3,3,4,4,5,5,6,6],"right_children":[2,4,6,8,10,12,14,-1,-1,-1,-1,-1,-1,-1,-1],"split_conditions":[1E0,1.2503E8,1E2,2.5E1,1.2E7,1.2E1,6.41E5,-3.3980947E-2,2.9924107E-3,3.8005255E-2,1.6289296E-2,-1.9581296E-2,9.727702E-3,-2.215657E-2,1.4156027E-3],"split_indices":[7,4,0,0,1,2,1,0,0,0,0,0,0,0,0],"split_type":[0,0,0,0,0,0,0,0,0,0,0,0,0,0,0],"sum_hessian":[7.643E3,4.054E3,3.589E3,3.581E3,4.73E2,9.62E2,2.627E3,5.7E1,3.524E3,3.4E1,4.39E2,8.98E2,6.4E1,1.62E2,2.465E3],"tree_param":{"num_deleted":"0","num_feature":"19","num_nodes":"15","size_leaf_vector":"1"}},{"base_weights":[-4.3465418E-5,-7.1030825E-2,1.0296675E-1,2.3830889E-2,-2.3829852E-1,1.00823855E-2,2.2419637E-1,-1.2162066E-3,1.2506099E-2,-1.5839938E-2,-1.1253054E-3,-3.26691E-2,1.729579E-3,1.7983228E-2,6.7164726E-3],"categories":[],"categories_nodes":[],"categories_segments":[],"categories_sizes":[],"default_left":[0,0,0,0,0,0,0,0,0,0,0,0,0,0,0],"id":61,"left_children":[1,3,5,7,9,11,13,-1,-1,-1,-1,-1,-1,-1,-1],"loss_changes":[5.5903473E1,7.182108E1,3.5118736E1,3.1487669E1,2.7740181E1,2.8755749E1,1.6423256E1,0E0,0E0,0E0,0E0,0E0,0E0,0E0,0E0],"parents":[2147483647,0,0,1,1,2,2,3,3,4,4,5,5,6,6],"right_children":[2,4,6,8,10,12,14,-1,-1,-1,-1,-1,-1,-1,-1],"split_conditions":[1.09E2,1E0,1.9777648E7,1E0,1.5E7,2.1E5,1E0,-1.2162066E-3,1.2506099E-2,-1.5839938E-2,-1.1253054E-3,-3.26691E-2,1.729579E-3,1.7983228E-2,6.7164726E-3],"split_indices":[0,7,4,15,1,1,7,0,0,0,0,0,0,0,0],"split_type":[0,0,0,0,0,0,0,0,0,0,0,0,0,0,0],"sum_hessian":[7.643E3,4.525E3,3.118E3,2.888E3,1.637E3,1.766E3,1.352E3,2.382E3,5.06E2,1.2E3,4.37E2,6.2E1,1.704E3,5.38E2,8.14E2],"tree_param":{"num_deleted":"0","num_feature":"19","num_nodes":"15","size_leaf_vector":"1"}},{"base_weights":[-4.2835E-5,-4.4369582E-2,1.5520522E-1,4.4746544E-2,-1.7053305E-1,-5.514547E-1,1.7697978E-1,6.440837E-3,-3.2934768E-3,-1.8313121E-2,-4.383255E-3,7.3231384E-2,-3.318171E-2,9.080547E-3,-1.2114854E-1],"categories":[],"categories_nodes":[],"categories_segments":[],"categories_sizes":[],"default_left":[0,0,0,0,0,0,0,0,0,0,0,0,0,0,0],"id":62,"left_children":[1,3,5,7,9,11,13,-1,-1,-1,-1,-1,-1,-1,-1],"loss_changes":[5.2610153E1,6.687093E1,2.622506E1,3.2426598E1,3.9900764E1,1.2506287E1,2.028321E1,0E0,0E0,0E0,0E0,0E0,0E0,0E0,0E0],"parents":[2147483647,0,0,1,1,2,2,3,3,4,4,5,5,6,6],"right_children":[2,4,6,8,10,12,14,-1,-1,-1,-1,-1,-1,-1,-1],"split_conditions":[1.22E2,1E0,9.66878E5,8E0,9.7E1,1.23E2,3.1E2,6.440837E-3,-3.2934768E-3,-1.8313121E-2,-4.383255E-3,7.3231384E-2,-3.318171E-2,9.080547E-3,-1.2114854E-1],"split_indices":[0,7,4,2,0,0,0,0,0,0,0,0,0,0,0],"split_type":[0,0,0,0,0,0,0,0,0,0,0,0,0,0,0],"sum_hessian":[7.643E3,5.946E3,1.697E3,3.485E3,2.461E3,5E1,1.647E3,1.98E3,1.505E3,7.31E2,1.73E3,2E0,4.8E1,1.645E3,2E0],"tree_param":{"num_deleted":"0","num_feature":"19","num_nodes":"15","size_leaf_vector":"1"}},{"base_weights":[-5.2821753E-5,-4.2985428E-2,1.5296671E-1,-5.498054E-1,-3.0364094E-2,-2.1303964E-1,1.7658785E-1,-2.0085309E-2,-5.6417525E-2,-3.976008E-2,-1.0596762E-3,1.7562361E-2,-2.5652943E-2,2.043684E-3,1.24314865E-2],"categories":[],"categories_nodes":[],"categories_segments":[],"categories_sizes":[],"default_left":[0,0,0,0,0,0,0,0,0,0,0,0,0,0,0],"id":63,"left_children":[1,3,5,7,9,11,13,-1,-1,-1,-1,-1,-1,-1,-1],"loss_changes":[5.0224037E1,3.8171867E1,1.451881E1,1.1970638E1,4.084669E1,1.7448496E1,1.5379002E1,0E0,0E0,0E0,0E0,0E0,0E0,0E0,0E0],"parents":[2147483647,0,0,1,1,2,2,3,3,4,4,5,5,6,6],"right_children":[2,4,6,8,10,12,14,-1,-1,-1,-1,-1,-1,-1,-1],"split_conditions":[4.6187416E7,5E5,1.4974848E7,1.14E2,2.4E1,1.09E2,1.04E2,-2.0085309E-2,-5.6417525E-2,-3.976008E-2,-1.0596762E-3,1.7562361E-2,-2.5652943E-2,2.043684E-3,1.24314865E-2],"split_indices":[3,3,4,0,0,0,0,0,0,0,0,0,0,0,0],"split_type":[0,0,0,0,0,0,0,0,0,0,0,0,0,0,0],"sum_hessian":[7.643E3,5.969E3,1.674E3,1.44E2,5.825E3,1.01E2,1.573E3,1.16E2,2.8E1,6.8E1,5.757E3,3.5E1,6.6E1,5.46E2,1.027E3],"tree_param":{"num_deleted":"0","num_feature":"19","num_nodes":"15","size_leaf_vector":"1"}},{"base_weights":[-6.4521984E-5,-5.0907326E-1,1.2278812E-2,-5.649759E-1,4.0623873E-1,-3.134918E-2,1.6626652E-1,-1.969639E-2,-4.9753997E-2,-3.126785E-3,4.906376E-2,-5.7969256E-3,4.2515043E-3,-3.161881E-2,9.073266E-3],"categories":[],"categories_nodes":[],"categories_segments":[],"categories_sizes":[],"default_left":[0,0,0,0,0,0,0,0,0,0,0,0,0,0,0],"id":64,"left_children":[1,3,5,7,9,11,13,-1,-1,-1,-1,-1,-1,-1,-1],"loss_changes":[4.803247E1,9.490997E0,5.0149662E1,1.2188217E1,3.0265512E0,5.7274998E1,2.0118858E1,0E0,0E0,0E0,0E0,0E0,0E0,0E0,0E0],"parents":[2147483647,0,0,1,1,2,2,3,3,4,4,5,5,6,6],"right_children":[2,4,6,8,10,12,14,-1,-1,-1,-1,-1,-1,-1,-1],"split_conditions":[9.66878E5,1.2E1,1.22E2,9E0,1E0,1E0,1.53E5,-1.969639E-2,-4.9753997E-2,-3.126785E-3,4.906376E-2,-5.7969256E-3,4.2515043E-3,-3.161881E-2,9.073266E-3],"split_indices":[4,2,0,2,11,8,1,0,0,0,0,0,0,0,0],"split_type":[0,0,0,0,0,0,0,0,0,0,0,0,0,0,0],"sum_hessian":[7.643E3,1.8E2,7.463E3,1.7E2,1E1,5.816E3,1.647E3,1.23E2,4.7E1,6E0,4E0,3.368E3,2.448E3,3E1,1.617E3],"tree_param":{"num_deleted":"0","num_feature":"19","num_nodes":"15","size_leaf_vector":"1"}},{"base_weights":[-6.751039E-5,7.335316E-2,-8.299808E-2,-3.8161242E-1,9.165432E-2,-3.0097598E-1,-3.09103E-3,-7.7035256E-2,-1.461408E-2,2.963331E-3,1.650629E-2,-1.6896082E-2,1.07320575E-2,-4.921002E-2,4.1175037E-4],"categories":[],"categories_nodes":[],"categories_segments":[],"categories_sizes":[],"default_left":[0,0,0,0,0,0,0,0,0,0,0,0,0,0,0],"id":65,"left_children":[1,3,5,7,9,11,13,-1,-1,-1,-1,-1,-1,-1,-1],"loss_changes":[4.654901E1,3.379853E1,6.252959E1,1.5805883E1,3.0094528E1,1.8417496E1,2.9210653E1,0E0,0E0,0E0,0E0,0E0,0E0,0E0,0E0],"parents":[2147483647,0,0,1,1,2,2,3,3,4,4,5,5,6,6],"right_children":[2,4,6,8,10,12,14,-1,-1,-1,-1,-1,-1,-1,-1],"split_conditions":[1E0,2.035311E6,1E2,1E5,1.2503E8,1.2E1,1E5,-7.7035256E-2,-1.461408E-2,2.963331E-3,1.650629E-2,-1.6896082E-2,1.07320575E-2,-4.921002E-2,4.1175037E-4],"split_indices":[7,3,0,3,4,2,1,0,0,0,0,0,0,0,0],"split_type":[0,0,0,0,0,0,0,0,0,0,0,0,0,0,0],"sum_hessian":[7.643E3,4.054E3,3.589E3,1.56E2,3.898E3,9.62E2,2.627E3,1E1,1.46E2,3.433E3,4.65E2,8.98E2,6.4E1,2.9E1,2.598E3],"tree_param":{"num_deleted":"0","num_feature":"19","num_nodes":"15","size_leaf_vector":"1"}},{"base_weights":[-8.096238E-5,-6.155277E-2,9.411204E-2,-5.9315795E-1,-4.8110593E-2,-1.64558E-1,1.2908463E-1,-1.6325919E-4,-3.9258905E-2,-3.7967876E-2,-1.8610752E-3,-4.345889E-2,-1.7108285E-4,1.8820215E-3,1.1510047E-2],"categories":[],"categories_nodes":[],"categories_segments":[],"categories_sizes":[],"default_left":[0,0,0,0,0,0,0,0,0,0,0,0,0,0,0],"id":66,"left_children":[1,3,5,7,9,11,13,-1,-1,-1,-1,-1,-1,-1,-1],"loss_changes":[4.426619E1,3.3028534E1,2.7332205E1,1.2910362E1,3.4924164E1,4.087137E1,2.4587029E1,0E0,0E0,0E0,0E0,0E0,0E0,0E0,0E0],"parents":[2147483647,0,0,1,1,2,2,3,3,4,4,5,5,6,6],"right_children":[2,4,6,8,10,12,14,-1,-1,-1,-1,-1,-1,-1,-1],"split_conditions":[1.7604548E7,5E5,3E0,7E1,2.4E1,9E6,1.09E2,-1.6325919E-4,-3.9258905E-2,-3.7967876E-2,-1.8610752E-3,-4.345889E-2,-1.7108285E-4,1.8820215E-3,1.1510047E-2],"split_indices":[4,3,2,0,0,1,0,0,0,0,0,0,0,0,0],"split_type":[0,0,0,0,0,0,0,0,0,0,0,0,0,0,0],"sum_hessian":[7.643E3,4.625E3,3.018E3,1.13E2,4.512E3,3.59E2,2.659E3,2.8E1,8.5E1,6.7E1,4.445E3,6.6E1,2.93E2,1.397E3,1.262E3],"tree_param":{"num_deleted":"0","num_feature":"19","num_nodes":"15","size_leaf_vector":"1"}},{"base_weights":[-9.147039E-5,6.985939E-2,-7.910279E-2,-3.561873E-1,8.699698E-2,-3.2257602E-1,-1.6737808E-2,-2.529168E-2,1.3418478E-2,-1.3589268E-2,5.3644595E-3,-1.970704E-2,5.9141116E-3,-3.6810362E-3,9.109992E-3],"categories":[],"categories_nodes":[],"categories_segments":[],"categories_sizes":[],"default_left":[0,0,0,0,0,0,0,0,0,0,0,0,0,0,0],"id":67,"left_children":[1,3,5,7,9,11,13,-1,-1,-1,-1,-1,-1,-1,-1],"loss_changes":[4.2253223E1,2.9638222E1,5.4505898E1,1.480938E1,2.8415766E1,2.3141167E1,3.23663E1,0E0,0E0,0E0,0E0,0E0,0E0,0E0,0E0],"parents":[2147483647,0,0,1,1,2,2,3,3,4,4,5,5,6,6],"right_children":[2,4,6,8,10,12,14,-1,-1,-1,-1,-1,-1,-1,-1],"split_conditions":[1E0,2.035311E6,9.7E1,1E0,3E5,1.6E7,1E0,-2.529168E-2,1.3418478E-2,-1.3589268E-2,5.3644595E-3,-1.970704E-2,5.9141116E-3,-3.6810362E-3,9.109992E-3],"split_indices":[7,3,0,11,1,1,8,0,0,0,0,0,0,0,0],"split_type":[0,0,0,0,0,0,0,0,0,0,0,0,0,0,0],"sum_hessian":[7.643E3,4.054E3,3.589E3,1.56E2,3.898E3,7.31E2,2.858E3,1.26E2,3E1,2.08E2,3.69E3,6.29E2,1.02E2,2.223E3,6.35E2],"tree_param":{"num_deleted":"0","num_feature":"19","num_nodes":"15","size_leaf_vector":"1"}},{"base_weights":[-9.088863E-5,-4.698658E-1,1.1301039E-2,-3.595248E-1,-9.538339E-1,-2.8898299E-2,1.5318711E-1,-2.0976704E-2,2.582788E-2,-3.0863017E-2,-1.3575968E-1,-5.2963495E-3,3.8539532E-3,4.4398736E-3,1.682601E-2],"categories":[],"categories_nodes":[],"categories_segments":[],"categories_sizes":[],"default_left":[0,0,0,0,0,0,0,0,0,0,0,0,0,0,0],"id":68,"left_children":[1,3,5,7,9,11,13,-1,-1,-1,-1,-1,-1,-1,-1],"loss_changes":[4.0913258E1,9.322754E0,4.2577038E1,8.050102E0,1.7887314E1,4.749407E1,1.942435E1,0E0,0E0,0E0,0E0,0E0,0E0,0E0,0E0],"parents":[2147483647,0,0,1,1,2,2,3,3,4,4,5,5,6,6],"right_children":[2,4,6,8,10,12,14,-1,-1,-1,-1,-1,-1,-1,-1],"split_conditions":[9.66878E5,1E0,1.22E2,1.2E1,1E0,1E0,1.1E1,-2.0976704E-2,2.582788E-2,-3.0863017E-2,-1.3575968E-1,-5.2963495E-3,3.8539532E-3,4.4398736E-3,1.682601E-2],"split_indices":[4,10,0,2,11,8,2,0,0,0,0,0,0,0,0],"split_type":[0,0,0,0,0,0,0,0,0,0,0,0,0,0,0],"sum_hessian":[7.643E3,1.8E2,7.463E3,1.48E2,3.2E1,5.816E3,1.647E3,1.39E2,9E0,2.8E1,4E0,3.368E3,2.448E3,1.22E3,4.27E2],"tree_param":{"num_deleted":"0","num_feature":"19","num_nodes":"15","size_leaf_vector":"1"}},{"base_weights":[-1.0496356E-4,-2.3298519E-2,2.1567026E-1,-1.2556623E-1,5.7213888E-2,-6.289799E-1,2.7110532E-1,-9.338232E-3,6.449148E-3,-3.6399458E-2,3.3954966E-3,1.4063584E-2,-3.862747E-2,2.0080721E-2,5.3915787E-3],"categories":[],"categories_nodes":[],"categories_segments":[],"categories_sizes":[],"default_left":[0,0,0,0,0,0,0,0,0,0,0,0,0,0,0],"id":69,"left_children":[1,3,5,7,9,11,13,-1,-1,-1,-1,-1,-1,-1,-1],"loss_changes":[3.8260143E1,5.684524E1,3.4913364E1,4.7396793E1,3.249312E1,6.228779E0,1.4808868E1,0E0,0E0,0E0,0E0,0E0,0E0,0E0,0E0],"parents":[2147483647,0,0,1,1,2,2,3,3,4,4,5,5,6,6],"right_children":[2,4,6,8,10,12,14,-1,-1,-1,-1,-1,-1,-1,-1],"split_conditions":[1E0,1.03E2,7.77E5,1E0,5E5,2.748E6,8E0,-9.338232E-3,6.449148E-3,-3.6399458E-2,3.3954966E-3,1.4063584E-2,-3.862747E-2,2.0080721E-2,5.3915787E-3],"split_indices":[15,0,1,14,3,4,2,0,0,0,0,0,0,0,0],"split_type":[0,0,0,0,0,0,0,0,0,0,0,0,0,0,0],"sum_hessian":[7.643E3,6.902E3,7.41E2,3.04E3,3.862E3,4.5E1,6.96E2,2.451E3,5.89E2,5.1E1,3.811E3,6E0,3.9E1,3.86E2,3.1E2],"tree_param":{"num_deleted":"0","num_feature":"19","num_nodes":"15","size_leaf_vector":"1"}},{"base_weights":[-1.04007515E-4,6.5909974E-2,-7.466852E-2,-2.1995222E-3,1.6713598E-1,-2.598229E-1,-6.7924424E-3,4.598608E-3,-6.2185456E-3,5.9260696E-2,7.462993E-3,-1.474115E-2,1.1412637E-2,-4.6230074E-2,1.9021748E-4],"categories":[],"categories_nodes":[],"categories_segments":[],"categories_sizes":[],"default_left":[0,0,0,0,0,0,0,0,0,0,0,0,0,0,0],"id":70,"left_children":[1,3,5,7,9,11,13,-1,-1,-1,-1,-1,-1,-1,-1],"loss_changes":[3.7630985E1,2.7957373E1,4.5115753E1,2.7911266E1,2.9506145E1,1.6517921E1,2.5563002E1,0E0,0E0,0E0,0E0,0E0,0E0,0E0,0E0],"parents":[2147483647,0,0,1,1,2,2,3,3,4,4,5,5,6,6],"right_children":[2,4,6,8,10,12,14,-1,-1,-1,-1,-1,-1,-1,-1],"split_conditions":[1E0,1.7604548E7,1E2,8E0,1.4E6,1.2E1,1E5,4.598608E-3,-6.2185456E-3,5.9260696E-2,7.462993E-3,-1.474115E-2,1.1412637E-2,-4.6230074E-2,1.9021748E-4],"split_indices":[7,4,0,2,1,2,1,0,0,0,0,0,0,0,0],"split_type":[0,0,0,0,0,0,0,0,0,0,0,0,0,0,0],"sum_hessian":[7.643E3,4.054E3,3.589E3,2.424E3,1.63E3,9.62E2,2.627E3,1.369E3,1.055E3,2.7E1,1.603E3,8.98E2,6.4E1,2.9E1,2.598E3],"tree_param":{"num_deleted":"0","num_feature":"19","num_nodes":"15","size_leaf_vector":"1"}},{"base_weights":[-9.6887896E-5,-4.4258627E-1,1.0633374E-2,-3.3581287E-1,-9.1127264E-1,-2.6466256E-2,1.415787E-1,-1.963739E-2,2.4742875E-2,-2.9345378E-2,-1.305168E-1,-4.9599386E-3,3.6800008E-3,7.297619E-3,-1.1526469E-1],"categories":[],"categories_nodes":[],"categories_segments":[],"categories_sizes":[],"default_left":[0,0,0,0,0,0,0,0,0,0,0,0,0,0,0],"id":71,"left_children":[1,3,5,7,9,11,13,-1,-1,-1,-1,-1,-1,-1,-1],"loss_changes":[3.6298622E1,8.751808E0,3.6264034E1,7.241184E0,1.6654829E1,4.234384E1,1.7972996E1,0E0,0E0,0E0,0E0,0E0,0E0,0E0,0E0],"parents":[2147483647,0,0,1,1,2,2,3,3,4,4,5,5,6,6],"right_children":[2,4,6,8,10,12,14,-1,-1,-1,-1,-1,-1,-1,-1],"split_conditions":[9.66878E5,1E0,1.22E2,1.2E1,1E0,1E0,3.1E2,-1.963739E-2,2.4742875E-2,-2.9345378E-2,-1.305168E-1,-4.9599386E-3,3.6800008E-3,7.297619E-3,-1.1526469E-1],"split_indices":[4,10,0,2,11,8,0,0,0,0,0,0,0,0,0],"split_type":[0,0,0,0,0,0,0,0,0,0,0,0,0,0,0],"sum_hessian":[7.643E3,1.8E2,7.463E3,1.48E2,3.2E1,5.816E3,1.647E3,1.39E2,9E0,2.8E1,4E0,3.368E3,2.448E3,1.645E3,2E0],"tree_param":{"num_deleted":"0","num_feature":"19","num_nodes":"15","size_leaf_vector":"1"}},{"base_weights":[-1.2660575E-4,-2.9790303E-2,1.5062267E-1,-4.6180487E-1,-1.8332688E-2,8.603927E-2,3.0287158E-1,-1.971278E-2,-8.69089E-2,-3.262999E-2,-5.453882E-4,-2.1279296E-3,7.97181E-3,6.977999E-2,1.2185052E-2],"categories":[],"categories_nodes":[],"categories_segments":[],"categories_sizes":[],"default_left":[0,0,0,0,0,0,0,0,0,0,0,0,0,0,0],"id":72,"left_children":[1,3,5,7,9,11,13,-1,-1,-1,-1,-1,-1,-1,-1],"loss_changes":[3.418678E1,3.1611217E1,1.2333708E1,1.3540703E1,2.9304098E1,8.350586E0,2.3841728E1,0E0,0E0,0E0,0E0,0E0,0E0,0E0,0E0],"parents":[2147483647,0,0,1,1,2,2,3,3,4,4,5,5,6,6],"right_children":[2,4,6,8,10,12,14,-1,-1,-1,-1,-1,-1,-1,-1],"split_conditions":[7.026878E7,9.66878E5,1E0,1E0,2.5E1,4.3418876E7,1.2E7,-1.971278E-2,-8.69089E-2,-3.262999E-2,-5.453882E-4,-2.1279296E-3,7.97181E-3,6.977999E-2,1.2185052E-2],"split_indices":[3,4,12,16,0,4,1,0,0,0,0,0,0,0,0],"split_type":[0,0,0,0,0,0,0,0,0,0,0,0,0,0,0],"sum_hessian":[7.643E3,6.387E3,1.256E3,1.64E2,6.223E3,8.83E2,3.73E2,1.57E2,7E0,7.1E1,6.152E3,3.21E2,5.62E2,1.8E1,3.55E2],"tree_param":{"num_deleted":"0","num_feature":"19","num_nodes":"15","size_leaf_vector":"1"}},{"base_weights":[-1.2699052E-4,-2.1768093E-2,2.0120543E-1,-1.1436614E-1,5.1131837E-2,-5.896603E-1,2.5311163E-1,-8.6199185E-3,6.3502872E-3,8.291565E-4,1.3886404E-2,-8.614311E-3,-4.5204546E-2,1.8739924E-2,5.0436966E-3],"categories":[],"categories_nodes":[],"categories_segments":[],"categories_sizes":[],"default_left":[0,0,0,0,0,0,0,0,0,0,0,0,0,0,0],"id":73,"left_children":[1,3,5,7,9,11,13,-1,-1,-1,-1,-1,-1,-1,-1],"loss_changes":[3.3309715E1,4.6603798E1,3.0608967E1,4.261825E1,3.02373E1,5.881056E0,1.2874348E1,0E0,0E0,0E0,0E0,0E0,0E0,0E0,0E0],"parents":[2147483647,0,0,1,1,2,2,3,3,4,4,5,5,6,6],"right_children":[2,4,6,8,10,12,14,-1,-1,-1,-1,-1,-1,-1,-1],"split_conditions":[1E0,1.03E2,7.77E5,1E0,1.2E1,8E0,8E0,-8.6199185E-3,6.3502872E-3,8.291565E-4,1.3886404E-2,-8.614311E-3,-4.5204546E-2,1.8739924E-2,5.0436966E-3],"split_indices":[15,0,1,14,2,2,2,0,0,0,0,0,0,0,0],"split_type":[0,0,0,0,0,0,0,0,0,0,0,0,0,0,0],"sum_hessian":[7.643E3,6.902E3,7.41E2,3.04E3,3.862E3,4.5E1,6.96E2,2.451E3,5.89E2,3.352E3,5.1E2,2E1,2.5E1,3.86E2,3.1E2],"tree_param":{"num_deleted":"0","num_feature":"19","num_nodes":"15","size_leaf_vector":"1"}},{"base_weights":[-1.2294302E-4,6.1752904E-2,-7.0013314E-2,-3.291136E-1,7.747599E-2,-1.07590884E-1,2.0638835E-1,-7.0924625E-2,-1.2267831E-2,7.217216E-3,-5.4659304E-4,-1.6550746E-2,-2.9627774E-3,9.185442E-3,6.8988465E-2],"categories":[],"categories_nodes":[],"categories_segments":[],"categories_sizes":[],"default_left":[0,0,0,0,0,0,0,0,0,0,0,0,0,0,0],"id":74,"left_children":[1,3,5,7,9,11,13,-1,-1,-1,-1,-1,-1,-1,-1],"loss_changes":[3.3061E1,2.4946009E1,3.7309753E1,1.3977133E1,2.3051239E1,3.4116894E1,1.118956E1,0E0,0E0,0E0,0E0,0E0,0E0,0E0,0E0],"parents":[2147483647,0,0,1,1,2,2,3,3,4,4,5,5,6,6],"right_children":[2,4,6,8,10,12,14,-1,-1,-1,-1,-1,-1,-1,-1],"split_conditions":[1E0,2.035311E6,1.2E1,1E5,8E0,9.5E1,1.93E2,-7.0924625E-2,-1.2267831E-2,7.217216E-3,-5.4659304E-4,-1.6550746E-2,-2.9627774E-3,9.185442E-3,6.8988465E-2],"split_indices":[7,3,2,3,2,0,0,0,0,0,0,0,0,0,0],"split_type":[0,0,0,0,0,0,0,0,0,0,0,0,0,0,0],"sum_hessian":[7.643E3,4.054E3,3.589E3,1.56E2,3.898E3,3.16E3,4.29E2,1E1,1.46E2,2.219E3,1.679E3,5.61E2,2.599E3,4.22E2,7E0],"tree_param":{"num_deleted":"0","num_feature":"19","num_nodes":"15","size_leaf_vector":"1"}},{"base_weights":[-1.19169614E-4,-5.14453E-1,7.666539E-3,-3.69424E-1,-9.911117E-1,-2.381064E-1,2.5028512E-2,-4.9713004E-2,-1.0404204E-2,-5.7731736E-2,3.2372173E-2,-1.4354278E-2,2.9627388E-2,4.9685906E-3,-2.5321906E-3],"categories":[],"categories_nodes":[],"categories_segments":[],"categories_sizes":[],"default_left":[0,0,0,0,0,0,0,0,0,0,0,0,0,0,0],"id":75,"left_children":[1,3,5,7,9,11,13,-1,-1,-1,-1,-1,-1,-1,-1],"loss_changes":[3.0613983E1,7.5146027E0,3.214151E1,8.765288E0,7.7140427E0,2.0390438E1,3.9582047E1,0E0,0E0,0E0,0E0,0E0,0E0,0E0,0E0],"parents":[2147483647,0,0,1,1,2,2,3,3,4,4,5,5,6,6],"right_children":[2,4,6,8,10,12,14,-1,-1,-1,-1,-1,-1,-1,-1],"split_conditions":[5.5E4,1.04E2,2.816116E6,3.2E1,1.51E2,1E0,1E0,-4.9713004E-2,-1.0404204E-2,-5.7731736E-2,3.2372173E-2,-1.4354278E-2,2.9627388E-2,4.9685906E-3,-2.5321906E-3],"split_indices":[1,0,3,0,0,15,5,0,0,0,0,0,0,0,0],"split_type":[0,0,0,0,0,0,0,0,0,0,0,0,0,0,0],"sum_hessian":[7.643E3,1.13E2,7.53E3,8.8E1,2.5E1,4.96E2,7.034E3,1.7E1,7.1E1,2.3E1,2E0,4.69E2,2.7E1,3.548E3,3.486E3],"tree_param":{"num_deleted":"0","num_feature":"19","num_nodes":"15","size_leaf_vector":"1"}},{"base_weights":[-1.22020654E-4,5.8358416E-2,-6.617719E-2,3.095728E-2,2.6530463E-1,-1.0172877E-1,1.9532219E-1,5.0226236E-3,-2.8881843E-3,3.445272E-2,1.1549715E-2,-1.5593894E-2,-2.8132552E-3,3.750157E-2,7.36618E-3],"categories":[],"categories_nodes":[],"categories_segments":[],"categories_sizes":[],"default_left":[0,0,0,0,0,0,0,0,0,0,0,0,0,0,0],"id":76,"left_children":[1,3,5,7,9,11,13,-1,-1,-1,-1,-1,-1,-1,-1],"loss_changes":[2.9532135E1,2.2985912E1,3.3395077E1,2.209127E1,6.732319E0,3.0183117E1,1.1338364E1,0E0,0E0,0E0,0E0,0E0,0E0,0E0,0E0],"parents":[2147483647,0,0,1,1,2,2,3,3,4,4,5,5,6,6],"right_children":[2,4,6,8,10,12,14,-1,-1,-1,-1,-1,-1,-1,-1],"split_conditions":[1E0,1.2503E8,1.2E1,8E0,1.2E7,9.5E1,4.033E6,5.0226236E-3,-2.8881843E-3,3.445272E-2,1.1549715E-2,-1.5593894E-2,-2.8132552E-3,3.750157E-2,7.36618E-3],"split_indices":[7,4,2,2,1,0,4,0,0,0,0,0,0,0,0],"split_type":[0,0,0,0,0,0,0,0,0,0,0,0,0,0,0],"sum_hessian":[7.643E3,4.054E3,3.589E3,3.581E3,4.73E2,3.16E3,4.29E2,2.008E3,1.573E3,3.4E1,4.39E2,5.61E2,2.599E3,3.3E1,3.96E2],"tree_param":{"num_deleted":"0","num_feature":"19","num_nodes":"15","size_leaf_vector":"1"}},{"base_weights":[-1.0616489E-4,-2.0118102E-2,1.8606973E-1,-1.04719274E-1,4.648616E-2,-5.531893E-1,2.3459174E-1,-7.947363E-3,6.0413033E-3,-3.338083E-2,2.810757E-3,1.5763562E-2,-3.456701E-2,3.0191643E-2,9.454915E-3],"categories":[],"categories_nodes":[],"categories_segments":[],"categories_sizes":[],"default_left":[0,0,0,0,0,0,0,0,0,0,0,0,0,0,0],"id":77,"left_children":[1,3,5,7,9,11,13,-1,-1,-1,-1,-1,-1,-1,-1],"loss_changes":[2.8483301E1,3.8901882E1,2.6745564E1,3.7213284E1,2.6875675E1,5.736974E0,1.1594059E1,0E0,0E0,0E0,0E0,0E0,0E0,0E0,0E0],"parents":[2147483647,0,0,1,1,2,2,3,3,4,4,5,5,6,6],"right_children":[2,4,6,8,10,12,14,-1,-1,-1,-1,-1,-1,-1,-1],"split_conditions":[1E0,1.03E2,7.77E5,1E0,5E5,2.748E6,3E0,-7.947363E-3,6.0413033E-3,-3.338083E-2,2.810757E-3,1.5763562E-2,-3.456701E-2,3.0191643E-2,9.454915E-3],"split_indices":[15,0,1,14,3,4,2,0,0,0,0,0,0,0,0],"split_type":[0,0,0,0,0,0,0,0,0,0,0,0,0,0,0],"sum_hessian":[7.643E3,6.902E3,7.41E2,3.04E3,3.862E3,4.5E1,6.96E2,2.451E3,5.89E2,5.1E1,3.811E3,6E0,3.9E1,7.5E1,6.21E2],"tree_param":{"num_deleted":"0","num_feature":"19","num_nodes":"15","size_leaf_vector":"1"}},{"base_weights":[-1.02533086E-4,-3.899348E-1,9.350808E-3,-2.8581408E-1,-8.4823936E-1,-2.3244133E-2,1.2439658E-1,-1.64768E-2,3.2409642E-2,-2.6803657E-2,-1.2445779E-1,-4.5431303E-3,3.4892808E-3,6.428331E-3,-1.1025148E-1],"categories":[],"categories_nodes":[],"categories_segments":[],"categories_sizes":[],"default_left":[0,0,0,0,0,0,0,0,0,0,0,0,0,0,0],"id":78,"left_children":[1,3,5,7,9,11,13,-1,-1,-1,-1,-1,-1,-1,-1],"loss_changes":[2.817345E1,8.394699E0,2.7992224E1,6.298252E0,1.5569508E1,3.6598354E1,1.6291824E1,0E0,0E0,0E0,0E0,0E0,0E0,0E0,0E0],"parents":[2147483647,0,0,1,1,2,2,3,3,4,4,5,5,6,6],"right_children":[2,4,6,8,10,12,14,-1,-1,-1,-1,-1,-1,-1,-1],"split_conditions":[9.66878E5,1E0,1.22E2,1E0,1E0,1E0,3.1E2,-1.64768E-2,3.2409642E-2,-2.6803657E-2,-1.2445779E-1,-4.5431303E-3,3.4892808E-3,6.428331E-3,-1.1025148E-1],"split_indices":[4,10,0,15,11,8,0,0,0,0,0,0,0,0,0],"split_type":[0,0,0,0,0,0,0,0,0,0,0,0,0,0,0],"sum_hessian":[7.643E3,1.8E2,7.463E3,1.48E2,3.2E1,5.816E3,1.647E3,1.42E2,6E0,2.8E1,4E0,3.368E3,2.448E3,1.645E3,2E0],"tree_param":{"num_deleted":"0","num_feature":"19","num_nodes":"15","size_leaf_vector":"1"}},{"base_weights":[-1.2859731E-4,-4.790558E-1,7.1211476E-3,-3.3905935E-1,-9.398491E-1,-2.1914016E-1,2.3104765E-2,-4.682275E-2,-9.250066E-3,-5.4855056E-2,3.1572487E-2,-1.32186925E-2,2.7398298E-2,4.55891E-3,-2.3092835E-3],"categories":[],"categories_nodes":[],"categories_segments":[],"categories_sizes":[],"default_left":[0,0,0,0,0,0,0,0,0,0,0,0,0,0,0],"id":79,"left_children":[1,3,5,7,9,11,13,-1,-1,-1,-1,-1,-1,-1,-1],"loss_changes":[2.6544144E1,7.03541E0,2.7240728E1,8.017745E0,7.1171E0,1.7390287E1,3.318717E1,0E0,0E0,0E0,0E0,0E0,0E0,0E0,0E0],"parents":[2147483647,0,0,1,1,2,2,3,3,4,4,5,5,6,6],"right_children":[2,4,6,8,10,12,14,-1,-1,-1,-1,-1,-1,-1,-1],"split_conditions":[5.5E4,1.04E2,2.816116E6,3.2E1,1.51E2,1E0,1E0,-4.682275E-2,-9.250066E-3,-5.4855056E-2,3.1572487E-2,-1.32186925E-2,2.7398298E-2,4.55891E-3,-2.3092835E-3],"split_indices":[1,0,3,0,0,15,5,0,0,0,0,0,0,0,0],"split_type":[0,0,0,0,0,0,0,0,0,0,0,0,0,0,0],"sum_hessian":[7.643E3,1.13E2,7.53E3,8.8E1,2.5E1,4.96E2,7.034E3,1.7E1,7.1E1,2.3E1,2E0,4.69E2,2.7E1,3.548E3,3.486E3],"tree_param":{"num_deleted":"0","num_feature":"19","num_nodes":"15","size_leaf_vector":"1"}},{"base_weights":[-1.3030754E-4,5.4612648E-2,-6.1963886E-2,-1.3200364E0,5.8337376E-2,-1.1857965E-1,8.158686E-2,1.3074715E-3,-1.2231081E-1,6.0288054E-3,-1.1758928E-3,-6.964381E-4,-1.1905345E-2,-3.6461465E-2,5.77821E-3],"categories":[],"categories_nodes":[],"categories_segments":[],"categories_sizes":[],"default_left":[0,0,0,0,0,0,0,0,0,0,0,0,0,0,0],"id":80,"left_children":[1,3,5,7,9,11,13,-1,-1,-1,-1,-1,-1,-1,-1],"loss_changes":[2.5877964E1,2.0839397E1,2.9186447E1,1.6740488E1,2.0610355E1,3.2206417E1,2.807443E1,0E0,0E0,0E0,0E0,0E0,0E0,0E0,0E0],"parents":[2147483647,0,0,1,1,2,2,3,3,4,4,5,5,6,6],"right_children":[2,4,6,8,10,12,14,-1,-1,-1,-1,-1,-1,-1,-1],"split_conditions":[1E0,1E5,1E0,9.1E1,8E0,1E0,1.108462E6,1.3074715E-3,-1.2231081E-1,6.0288054E-3,-1.1758928E-3,-6.964381E-4,-1.1905345E-2,-3.6461465E-2,5.77821E-3],"split_indices":[7,3,11,0,2,5,4,0,0,0,0,0,0,0,0],"split_type":[0,0,0,0,0,0,0,0,0,0,0,0,0,0,0],"sum_hessian":[7.643E3,4.054E3,3.589E3,1E1,4.044E3,2.574E3,1.015E3,5E0,5E0,2.297E3,1.747E3,1.373E3,1.201E3,4E1,9.75E2],"tree_param":{"num_deleted":"0","num_feature":"19","num_nodes":"15","size_leaf_vector":"1"}},{"base_weights":[-1.4456999E-4,-1.8722337E-2,1.7268895E-1,-1.0455238E-1,3.748725E-2,-5.2060705E-1,2.1819673E-1,-8.0761565E-3,6.3502877E-3,3.5376285E-4,1.2144818E-2,-6.4720656E-3,-4.082626E-2,2.8300107E-2,8.767441E-3],"categories":[],"categories_nodes":[],"categories_segments":[],"categories_sizes":[],"default_left":[0,0,0,0,0,0,0,0,0,0,0,0,0,0,0],"id":81,"left_children":[1,3,5,7,9,11,13,-1,-1,-1,-1,-1,-1,-1,-1],"loss_changes":[2.4547052E1,3.3307243E1,2.3523968E1,3.6061165E1,2.6060349E1,5.2189493E0,1.0287956E1,0E0,0E0,0E0,0E0,0E0,0E0,0E0,0E0],"parents":[2147483647,0,0,1,1,2,2,3,3,4,4,5,5,6,6],"right_children":[2,4,6,8,10,12,14,-1,-1,-1,-1,-1,-1,-1,-1],"split_conditions":[1E0,1.01E2,7.77E5,1E0,1.2E1,8E0,3E0,-8.0761565E-3,6.3502877E-3,3.5376285E-4,1.2144818E-2,-6.4720656E-3,-4.082626E-2,2.8300107E-2,8.767441E-3],"split_indices":[15,0,1,14,2,2,2,0,0,0,0,0,0,0,0],"split_type":[0,0,0,0,0,0,0,0,0,0,0,0,0,0,0],"sum_hessian":[7.643E3,6.902E3,7.41E2,2.731E3,4.171E3,4.5E1,6.96E2,2.192E3,5.39E2,3.634E3,5.37E2,2E1,2.5E1,7.5E1,6.21E2],"tree_param":{"num_deleted":"0","num_feature":"19","num_nodes":"15","size_leaf_vector":"1"}},{"base_weights":[-1.3713934E-4,-2.597409E-2,1.20774515E-1,-7.415758E-2,5.934373E-2,-1.5572412E-1,1.5532257E-1,-6.3783564E-3,1.08065E-2,-4.7426946E-3,7.5899446E-3,-1.0021444E-1,-5.218185E-3,-2.8726444E-2,8.379105E-3],"categories":[],"categories_nodes":[],"categories_segments":[],"categories_sizes":[],"default_left":[0,0,0,0,0,0,0,0,0,0,0,0,0,0,0],"id":82,"left_children":[1,3,5,7,9,11,13,-1,-1,-1,-1,-1,-1,-1,-1],"loss_changes":[2.3882904E1,2.5899027E1,1.2881838E1,6.244718E1,3.2433372E1,1.4032285E1,1.0806585E1,0E0,0E0,0E0,0E0,0E0,0E0,0E0,0E0],"parents":[2147483647,0,0,1,1,2,2,3,3,4,4,5,5,6,6],"right_children":[2,4,6,8,10,12,14,-1,-1,-1,-1,-1,-1,-1,-1],"split_conditions":[8.316477E7,1E0,3E0,1E0,9.5E1,1.091E6,1.071E6,-6.3783564E-3,1.08065E-2,-4.7426946E-3,7.5899446E-3,-1.0021444E-1,-5.218185E-3,-2.8726444E-2,8.379105E-3],"split_indices":[4,8,2,14,0,1,3,0,0,0,0,0,0,0,0],"split_type":[0,0,0,0,0,0,0,0,0,0,0,0,0,0,0],"sum_hessian":[7.643E3,6.298E3,1.345E3,4.025E3,2.273E3,1.49E2,1.196E3,3.4E3,6.25E2,8.52E2,1.421E3,3E0,1.46E2,1.9E1,1.177E3],"tree_param":{"num_deleted":"0","num_feature":"19","num_nodes":"15","size_leaf_vector":"1"}},{"base_weights":[-1.4577717E-4,-3.5466802E-1,8.451312E-3,-2.5300038E-1,-8.029653E-1,-4.711541E-3,2.565976E-1,-1.5219665E-2,2.4590021E-2,-2.53046E-2,-1.18211865E-1,2.0500752E-3,-4.003357E-3,1.3750346E-2,-1.0619817E-1],"categories":[],"categories_nodes":[],"categories_segments":[],"categories_sizes":[],"default_left":[0,0,0,0,0,0,0,0,0,0,0,0,0,0,0],"id":83,"left_children":[1,3,5,7,9,11,13,-1,-1,-1,-1,-1,-1,-1,-1],"loss_changes":[2.330083E1,8.046349E0,2.4380968E1,5.8530445E0,1.4098972E1,2.4423002E1,1.706212E1,0E0,0E0,0E0,0E0,0E0,0E0,0E0,0E0],"parents":[2147483647,0,0,1,1,2,2,3,3,4,4,5,5,6,6],"right_children":[2,4,6,8,10,12,14,-1,-1,-1,-1,-1,-1,-1,-1],"split_conditions":[9.66878E5,1E0,1.51E2,1.2E1,1E0,9E0,3.1E2,-1.5219665E-2,2.4590021E-2,-2.53046E-2,-1.18211865E-1,2.0500752E-3,-4.003357E-3,1.3750346E-2,-1.0619817E-1],"split_indices":[4,10,0,2,11,2,0,0,0,0,0,0,0,0,0],"split_type":[0,0,0,0,0,0,0,0,0,0,0,0,0,0,0],"sum_hessian":[7.643E3,1.8E2,7.463E3,1.48E2,3.2E1,7.088E3,3.75E2,1.39E2,9E0,2.8E1,4E0,4.412E3,2.676E3,3.73E2,2E0],"tree_param":{"num_deleted":"0","num_feature":"19","num_nodes":"15","size_leaf_vector":"1"}},{"base_weights":[-1.6850517E-4,-4.4466814E-1,6.5601002E-3,-3.1044582E-1,-8.8701886E-1,-2.0300041E-1,2.136394E-2,-4.398689E-2,-8.190554E-3,-5.1833786E-2,3.029542E-2,-1.22494055E-2,2.5452156E-2,4.094967E-3,-2.0126963E-3],"categories":[],"categories_nodes":[],"categories_segments":[],"categories_sizes":[],"default_left":[0,0,0,0,0,0,0,0,0,0,0,0,0,0,0],"id":84,"left_children":[1,3,5,7,9,11,13,-1,-1,-1,-1,-1,-1,-1,-1],"loss_changes":[2.286507E1,6.4931927E0,2.3367764E1,7.285429E0,6.4372253E0,1.4983549E1,2.6244286E1,0E0,0E0,0E0,0E0,0E0,0E0,0E0,0E0],"parents":[2147483647,0,0,1,1,2,2,3,3,4,4,5,5,6,6],"right_children":[2,4,6,8,10,12,14,-1,-1,-1,-1,-1,-1,-1,-1],"split_conditions":[5.5E4,1.04E2,2.816116E6,3.2E1,1.51E2,1E0,1E0,-4.398689E-2,-8.190554E-3,-5.1833786E-2,3.029542E-2,-1.22494055E-2,2.5452156E-2,4.094967E-3,-2.0126963E-3],"split_indices":[1,0,3,0,0,15,5,0,0,0,0,0,0,0,0],"split_type":[0,0,0,0,0,0,0,0,0,0,0,0,0,0,0],"sum_hessian":[7.643E3,1.13E2,7.53E3,8.8E1,2.5E1,4.96E2,7.034E3,1.7E1,7.1E1,2.3E1,2E0,4.69E2,2.7E1,3.548E3,3.486E3],"tree_param":{"num_deleted":"0","num_feature":"19","num_nodes":"15","size_leaf_vector":"1"}},{"base_weights":[-1.6800451E-4,-1.7695671E-2,1.6289622E-1,-9.0655565E-2,3.9743815E-2,-4.8890966E-1,2.0567982E-1,-6.899608E-3,5.3112875E-3,-3.5720952E-3,4.8709447E-3,1.532708E-2,-3.0794544E-2,1.2288035E-2,-6.753944E-3],"categories":[],"categories_nodes":[],"categories_segments":[],"categories_sizes":[],"default_left":[0,0,0,0,0,0,0,0,0,0,0,0,0,0,0],"id":85,"left_children":[1,3,5,7,9,11,13,-1,-1,-1,-1,-1,-1,-1,-1],"loss_changes":[2.1850468E1,2.8932547E1,2.0792421E1,2.8355835E1,2.4779007E1,4.8351364E0,9.552757E0,0E0,0E0,0E0,0E0,0E0,0E0,0E0,0E0],"parents":[2147483647,0,0,1,1,2,2,3,3,4,4,5,5,6,6],"right_children":[2,4,6,8,10,12,14,-1,-1,-1,-1,-1,-1,-1,-1],"split_conditions":[1E0,1.03E2,7.77E5,1E0,6E0,2.748E6,1E0,-6.899608E-3,5.3112875E-3,-3.5720952E-3,4.8709447E-3,1.532708E-2,-3.0794544E-2,1.2288035E-2,-6.753944E-3],"split_indices":[15,0,1,14,2,4,16,0,0,0,0,0,0,0,0],"split_type":[0,0,0,0,0,0,0,0,0,0,0,0,0,0,0],"sum_hessian":[7.643E3,6.902E3,7.41E2,3.04E3,3.862E3,4.5E1,6.96E2,2.451E3,5.89E2,1.319E3,2.543E3,6E0,3.9E1,6.23E2,7.3E1],"tree_param":{"num_deleted":"0","num_feature":"19","num_nodes":"15","size_leaf_vector":"1"}},{"base_weights":[-1.6101002E-4,4.9698498E-2,-5.64786E-2,-1.251542E0,5.3224813E-2,-1.1021533E-1,7.976998E-2,2.4468421E-3,-1.1717152E-1,5.611562E-3,-1.2189077E-3,-8.1055E-4,-1.08789755E-2,-3.3173703E-2,5.5455295E-3],"categories":[],"categories_nodes":[],"categories_segments":[],"categories_sizes":[],"default_left":[0,0,0,0,0,0,0,0,0,0,0,0,0,0,0],"id":86,"left_children":[1,3,5,7,9,11,13,-1,-1,-1,-1,-1,-1,-1,-1],"loss_changes":[2.1466908E1,1.8673323E1,2.6293167E1,1.5734434E1,1.8525087E1,2.5985172E1,2.3588978E1,0E0,0E0,0E0,0E0,0E0,0E0,0E0,0E0],"parents":[2147483647,0,0,1,1,2,2,3,3,4,4,5,5,6,6],"right_children":[2,4,6,8,10,12,14,-1,-1,-1,-1,-1,-1,-1,-1],"split_conditions":[1E0,1E5,1E0,9.1E1,8E0,1E0,1.108462E6,2.4468421E-3,-1.1717152E-1,5.611562E-3,-1.2189077E-3,-8.1055E-4,-1.08789755E-2,-3.3173703E-2,5.5455295E-3],"split_indices":[7,3,11,0,2,5,4,0,0,0,0,0,0,0,0],"split_type":[0,0,0,0,0,0,0,0,0,0,0,0,0,0,0],